{"learner":{"attributes":{"scikit_learn":"{\"_estimator_type\": \"regressor\"}"},"feature_names":["temperature_2m_mean","precipitation_sum","wind_speed_10m_max","wind_direction_10m_dominant"],"feature_types":["float","float","float","float"],"gradient_booster":{"model":{"gbtree_model_param":{"num_parallel_tree":"1","num_trees":"100"},"iteration_indptr":[0,1,2,3,4,5,6,7,8,9,10,11,12,13,14,15,16,17,18,19,20,21,22,23,24,25,26,27,28,29,30,31,32,33,34,35,36,37,38,39,40,41,42,43,44,45,46,47,48,49,50,51,52,53,54,55,56,57,58,59,60,61,62,63,64,65,66,67,68,69,70,71,72,73,74,75,76,77,78,79,80,81,82,83,84,85,86,87,88,89,90,91,92,93,94,95,96,97,98,99,100],"tree_info":[0,0,0,0,0,0,0,0,0,0,0,0,0,0,0,0,0,0,0,0,0,0,0,0,0,0,0,0,0,0,0,0,0,0,0,0,0,0,0,0,0,0,0,0,0,0,0,0,0,0,0,0,0,0,0,0,0,0,0,0,0,0,0,0,0,0,0,0,0,0,0,0,0,0,0,0,0,0,0,0,0,0,0,0,0,0,0,0,0,0,0,0,0,0,0,0,0,0,0,0],"trees":[{"base_weights":[2.140517E-7,6.481151E0,-4.2221103E0,1.2321818E1,-1.7986922E0,-2.0794718E0,-4.972383E0,2.085739E1,7.212267E0,4.057726E0,-3.1254766E0,9.05546E0,-2.699564E0,-3.3942776E0,-5.6746087E0,6.2254663E0,2.670674E1,1.4192025E1,4.381378E0,-3.628758E0,1.1324774E1,-2.602055E-1,-4.052435E0,1.987637E1,-2.897381E0,1.8774585E-1,-3.6533148E0,2.4114645E0,-4.177663E0,-4.1194487E0,-6.096391E0,1.7268688E1,4.083722E0,2.3331839E1,3.89924E1,1.5815134E1,-3.6027408E0,7.401785E0,5.8037513E-1,-5.8339896E0,1.0921457E-1,7.9430275E0,9.1409E0,-4.153205E0,1.4144182E0,-8.802022E-1,-4.659865E0,2.7876017E0,8.871634E0,-1.430466E0,1.8100909E0,-1.2002113E0,8.219123E0,-4.3668437E0,-1.9947051E0,-3.2765422E0,5.876971E0,-4.536889E0,1.3808407E0,1.9429123E-1,-4.5565624E0,-6.1389065E0,1.8150206E0,9.2852026E-1,5.734534E0,5.2664045E-2,2.907226E0,7.2607074E0,3.4804108E0,1.4208788E1,4.287035E0,5.887064E0,2.9021108E0,-1.6797286E-1,-1.4123675E0,3.2372582E0,1.0339991E0,7.303188E-1,-1.3086132E0,-1.913212E0,4.2902043E-1,5.173207E-1,-6.521673E-1,5.3016324E0,2.035948E0,5.478051E-2,-1.509762E0,1.5078387E0,-5.363089E-1,7.455906E-2,-1.6309661E0,-1.4283824E0,1.5675204E0,1.2410271E0,-1.8897958E-1,1.6770205E0,-8.624796E-1,-5.6429964E-1,1.5040342E0,3.531411E0,-1.1979729E0,-1.8846623E0,-1.0055727E0,9.455678E-1,-1.1560037E0,8.6202717E-1,-1.4381633E0,3.180703E0,4.4294614E-1,-1.7601938E0,-1.0139328E0,1.4213697E0,-1.1654661E0,-7.510894E-1,1.3416327E0,-1.7295117E0,-9.363062E-1,-1.8940232E0,-1.2372577E0],"categories":[],"categories_nodes":[],"categories_segments":[],"categories_sizes":[],"default_left":[0,0,0,0,0,0,0,0,0,0,0,0,0,0,0,0,0,0,0,0,0,0,0,0,0,0,0,0,0,0,0,0,0,0,0,0,0,0,0,0,0,0,0,0,0,0,0,0,0,0,0,0,0,0,0,0,0,0,0,0,0,0,0,0,0,0,0,0,0,0,0,0,0,0,0,0,0,0,0,0,0,0,0,0,0,0,0,0,0,0,0,0,0,0,0,0,0,0,0,0,0,0,0,0,0,0,0,0,0,0,0,0,0,0,0,0,0,0,0],"id":0,"left_children":[1,3,5,7,9,11,13,15,17,19,21,23,25,27,29,31,33,35,37,39,41,43,45,47,49,51,53,55,57,59,61,63,65,67,69,71,73,75,77,79,81,-1,83,85,87,89,91,93,-1,-1,95,97,99,101,103,105,107,109,111,113,115,117,-1,-1,-1,-1,-1,-1,-1,-1,-1,-1,-1,-1,-1,-1,-1,-1,-1,-1,-1,-1,-1,-1,-1,-1,-1,-1,-1,-1,-1,-1,-1,-1,-1,-1,-1,-1,-1,-1,-1,-1,-1,-1,-1,-1,-1,-1,-1,-1,-1,-1,-1,-1,-1,-1,-1,-1,-1],"loss_changes":[4.848925E4,3.382567E4,1.7145762E3,1.7730883E4,2.2660413E3,1.9577572E3,8.606387E2,1.2928586E4,5.035622E3,3.0574292E3,6.284143E2,1.9976985E3,7.331897E2,1.1334631E3,3.343418E2,9.938082E2,3.6096875E3,2.1943057E3,2.1196106E3,2.2320078E2,6.8449927E2,3.9051358E2,3.4081543E2,1.2430706E3,7.908629E1,7.567275E2,2.2798242E2,6.106108E2,4.4155908E2,2.2715674E2,2.5868066E2,1.24031494E2,8.529159E2,6.1783984E2,3.8719805E3,1.400627E3,2.0903511E1,1.3434409E3,7.7117676E2,7.622186E1,4.431275E1,0E0,4.023025E2,6.95462E1,4.9471985E2,1.5563818E2,1.7524194E2,2.1049007E1,0E0,0E0,6.919891E1,2.5478076E2,4.808194E2,2.491543E2,6.052171E2,1.257536E2,3.7943036E2,2.9575684E2,2.6588916E2,1.4969116E2,1.711023E2,1.2443652E2,0E0,0E0,0E0,0E0,0E0,0E0,0E0,0E0,0E0,0E0,0E0,0E0,0E0,0E0,0E0,0E0,0E0,0E0,0E0,0E0,0E0,0E0,0E0,0E0,0E0,0E0,0E0,0E0,0E0,0E0,0E0,0E0,0E0,0E0,0E0,0E0,0E0,0E0,0E0,0E0,0E0,0E0,0E0,0E0,0E0,0E0,0E0,0E0,0E0,0E0,0E0,0E0,0E0,0E0,0E0,0E0,0E0],"parents":[2147483647,0,0,1,1,2,2,3,3,4,4,5,5,6,6,7,7,8,8,9,9,10,10,11,11,12,12,13,13,14,14,15,15,16,16,17,17,18,18,19,19,20,20,21,21,22,22,23,23,24,24,25,25,26,26,27,27,28,28,29,29,30,30,31,31,32,32,33,33,34,34,35,35,36,36,37,37,38,38,39,39,40,40,42,42,43,43,44,44,45,45,46,46,47,47,50,50,51,51,52,52,53,53,54,54,55,55,56,56,57,57,58,58,59,59,60,60,61,61],"right_children":[2,4,6,8,10,12,14,16,18,20,22,24,26,28,30,32,34,36,38,40,42,44,46,48,50,52,54,56,58,60,62,64,66,68,70,72,74,76,78,80,82,-1,84,86,88,90,92,94,-1,-1,96,98,100,102,104,106,108,110,112,114,116,118,-1,-1,-1,-1,-1,-1,-1,-1,-1,-1,-1,-1,-1,-1,-1,-1,-1,-1,-1,-1,-1,-1,-1,-1,-1,-1,-1,-1,-1,-1,-1,-1,-1,-1,-1,-1,-1,-1,-1,-1,-1,-1,-1,-1,-1,-1,-1,-1,-1,-1,-1,-1,-1,-1,-1,-1,-1],"split_conditions":[8.156667E0,2.1194187E1,1.5273505E1,1.5468512E2,1.783036E2,9.037916E0,1.7377745E2,5.1232418E1,1.4021525E1,8.062073E1,4E-1,2.0527489E2,1.3344166E1,9.987916E0,1.1021251E1,-1.7874996E-1,8E-1,3.1673563E2,2.5264589E2,4.5680347E1,-1.7874996E-1,2.2847977E2,2.3828083E1,1.0495713E1,8.602499E0,1.28775015E1,3E-1,8.973334E0,1.5944383E2,1.7015474E1,4.2400005E1,-7.4475007E0,3.5504167E0,2.049156E1,3.9999998E0,4.056667E0,1.1726277E1,1.7873556E1,3.1094247E2,8.023334E0,3.6291683E-1,7.9430275E0,9.379911E1,2.233161E1,2.682275E2,3.1673563E2,1.95E1,2E-1,8.871634E0,-1.430466E0,8.781667E0,1.5042659E1,3E-1,1.0860015E2,1.3066273E2,1.623596E1,1.8692286E1,1.8402502E1,1.3887917E1,9.339999E0,2.47023E2,2.2308754E1,1.8150206E0,9.2852026E-1,5.734534E0,5.2664045E-2,2.907226E0,7.2607074E0,3.4804108E0,1.4208788E1,4.287035E0,5.887064E0,2.9021108E0,-1.6797286E-1,-1.4123675E0,3.2372582E0,1.0339991E0,7.303188E-1,-1.3086132E0,-1.913212E0,4.2902043E-1,5.173207E-1,-6.521673E-1,5.3016324E0,2.035948E0,5.478051E-2,-1.509762E0,1.5078387E0,-5.363089E-1,7.455906E-2,-1.6309661E0,-1.4283824E0,1.5675204E0,1.2410271E0,-1.8897958E-1,1.6770205E0,-8.624796E-1,-5.6429964E-1,1.5040342E0,3.531411E0,-1.1979729E0,-1.8846623E0,-1.0055727E0,9.455678E-1,-1.1560037E0,8.6202717E-1,-1.4381633E0,3.180703E0,4.4294614E-1,-1.7601938E0,-1.0139328E0,1.4213697E0,-1.1654661E0,-7.510894E-1,1.3416327E0,-1.7295117E0,-9.363062E-1,-1.8940232E0,-1.2372577E0],"split_indices":[0,2,2,3,3,0,3,3,2,3,1,3,0,0,0,0,1,3,3,3,0,3,2,2,0,0,1,0,3,2,1,0,0,2,1,0,2,2,3,0,0,0,3,2,3,3,1,1,0,0,0,2,1,3,3,2,2,0,0,0,3,0,0,0,0,0,0,0,0,0,0,0,0,0,0,0,0,0,0,0,0,0,0,0,0,0,0,0,0,0,0,0,0,0,0,0,0,0,0,0,0,0,0,0,0,0,0,0,0,0,0,0,0,0,0,0,0,0,0],"split_type":[0,0,0,0,0,0,0,0,0,0,0,0,0,0,0,0,0,0,0,0,0,0,0,0,0,0,0,0,0,0,0,0,0,0,0,0,0,0,0,0,0,0,0,0,0,0,0,0,0,0,0,0,0,0,0,0,0,0,0,0,0,0,0,0,0,0,0,0,0,0,0,0,0,0,0,0,0,0,0,0,0,0,0,0,0,0,0,0,0,0,0,0,0,0,0,0,0,0,0,0,0,0,0,0,0,0,0,0,0,0,0,0,0,0,0,0,0,0,0],"sum_hessian":[1.77E3,6.98E2,1.072E3,4.09E2,2.89E2,2.79E2,7.93E2,1.52E2,2.57E2,5.3E1,2.36E2,1.4E1,2.65E2,2.46E2,5.47E2,4.4E1,1.08E2,7.3E1,1.84E2,2.6E1,2.7E1,5.8E1,1.78E2,7E0,7E0,6.6E1,1.99E2,2.9E1,2.17E2,1.19E2,4.28E2,6E0,3.8E1,8.7E1,2.1E1,6.7E1,6E0,1.02E2,8.2E1,1.6E1,1E1,2E0,2.5E1,1.7E1,4.1E1,2.9E1,1.49E2,3E0,4E0,5E0,2E0,5.7E1,9E0,1.38E2,6.1E1,1.1E1,1.8E1,2.04E2,1.3E1,1.1E1,1.08E2,4.27E2,1E0,1E0,5E0,2.3E1,1.5E1,8E1,7E0,1.5E1,6E0,4E1,2.7E1,2E0,4E0,5.4E1,4.8E1,6E1,2.2E1,1.5E1,1E0,6E0,4E0,4E0,2.1E1,3E0,1.4E1,1.9E1,2.2E1,2.4E1,5E0,1.48E2,1E0,2E0,1E0,1E0,1E0,5.2E1,5E0,7E0,2E0,4.6E1,9.2E1,1.6E1,4.5E1,2E0,9E0,8E0,1E1,9.3E1,1.11E2,8E0,5E0,7E0,4E0,5.7E1,5.1E1,3.91E2,3.6E1],"tree_param":{"num_deleted":"0","num_feature":"4","num_nodes":"119","size_leaf_vector":"1"}},{"base_weights":[3.8475942E-2,6.1120596E0,-2.3423226E0,1.2232413E1,1.6590034E0,2.8652373E-1,-3.3199503E0,1.4954134E1,1.3142385E0,8.057861E0,-5.30741E-1,5.1920395E0,-2.6175957E0,-2.0311906E0,-3.7947621E0,-7.508688E-2,1.6536652E1,4.5210547E0,-2.9744272E0,9.007394E-2,1.4126412E1,1.2881842E0,-2.3117697E0,9.385152E0,1.6344947E0,-1.5103745E0,-4.0621176E0,-2.605074E-1,-2.8088028E0,-3.97215E0,-5.2593523E-1,2.0831053E0,-2.7688384E0,2.5091482E1,1.222327E1,4.6389568E-1,9.64254E0,1.5137184E0,-5.718655E0,5.9683957E0,-2.36298E0,2.1566048E1,8.718712E0,2.6998003E0,-4.3526697E0,-1.8217599E0,-1.8485113E0,-2.5316894E-1,1.1599208E1,-1.949766E0,2.2170928E0,6.4359202E0,-1.8262514E0,-4.2013083E0,1.3323923E0,-4.9995594E0,1.6905409E0,-3.3871677E0,-8.9666647E-1,-4.1455274E0,-1.3966296E0,2.4365647E0,-1.9268978E0,-1.6334136E0,3.7813988E-1,5.6039047E0,1.1264723E1,6.6513042E0,2.9567564E0,-1.1613461E0,1.1352171E0,4.1052804E0,1.198117E0,1.701873E0,-6.349135E-1,-1.8360538E0,-1.9528371E-1,2.217713E0,5.4494385E-2,1.1942832E-1,-1.5471687E0,5.73159E-1,7.6924434E0,6.652446E0,2.0020258E0,2.1229904E0,4.841402E-1,-9.9955547E-1,-1.9558629E0,-1.356599E0,-3.7402517E-1,3.4997346E0,-1.1410613E0,2.5780184E0,6.6485887E0,1.316016E0,-8.790642E-2,-3.5945222E-1,5.545845E0,-1.0274034E0,1.7770453E-1,-8.983025E-1,-1.6108258E0,-2.542803E-1,-1.5449272E0,1.3516351E0,-6.751197E-1,-1.3951628E0,-7.812472E-1,-5.686447E-1,4.4318023E-1,-1.0838434E0,-1.3391253E0,1.7781958E-1,-8.319314E-1,-1.7646477E-1,1.404346E0,-7.307195E-1,1.5427675E0],"categories":[],"categories_nodes":[],"categories_segments":[],"categories_sizes":[],"default_left":[0,0,0,0,0,0,0,0,0,0,0,0,0,0,0,0,0,0,0,0,0,0,0,0,0,0,0,0,0,0,0,0,0,0,0,0,0,0,0,0,0,0,0,0,0,0,0,0,0,0,0,0,0,0,0,0,0,0,0,0,0,0,0,0,0,0,0,0,0,0,0,0,0,0,0,0,0,0,0,0,0,0,0,0,0,0,0,0,0,0,0,0,0,0,0,0,0,0,0,0,0,0,0,0,0,0,0,0,0,0,0,0,0,0,0,0,0,0,0],"id":1,"left_children":[1,3,5,7,9,11,13,15,17,19,21,23,25,27,29,31,33,35,37,39,41,43,45,47,49,51,53,55,57,59,61,-1,63,65,67,69,71,73,75,77,79,81,83,85,87,89,-1,91,93,-1,95,97,99,101,-1,103,105,107,109,111,113,115,117,-1,-1,-1,-1,-1,-1,-1,-1,-1,-1,-1,-1,-1,-1,-1,-1,-1,-1,-1,-1,-1,-1,-1,-1,-1,-1,-1,-1,-1,-1,-1,-1,-1,-1,-1,-1,-1,-1,-1,-1,-1,-1,-1,-1,-1,-1,-1,-1,-1,-1,-1,-1,-1,-1,-1,-1],"loss_changes":[2.5622941E4,1.357959E4,3.272603E3,6.220752E3,4.067717E3,4.942777E3,5.6015234E2,3.996957E3,6.04825E2,3.5768447E3,7.0596216E2,1.9089768E3,3.4253503E2,3.462483E2,3.9046973E2,3.4064197E2,5.3021367E3,5.149939E2,2.4266982E2,4.8995795E2,1.5016865E3,8.717252E2,1.9629053E2,1.2619839E3,3.508562E2,3.2550992E2,1.2991748E2,7.2964923E2,1.9049756E2,2.8088672E2,1.5410767E2,0E0,1.4702771E2,3.292373E3,2.2071826E3,2.305446E2,1.9648962E2,1.3279214E2,2.0433838E1,8.105939E1,1.8721616E2,1.3127915E3,5.6758154E2,4.0211163E2,2.6941467E1,1.4807574E2,0E0,5.521713E2,1.3335371E3,0E0,3.6616806E2,4.8211255E2,4.69809E2,1.1504016E2,0E0,9.97821E0,6.3136884E2,1.2044678E2,1.023873E2,8.5756836E1,1.16652565E2,8.422617E1,1.0245537E2,0E0,0E0,0E0,0E0,0E0,0E0,0E0,0E0,0E0,0E0,0E0,0E0,0E0,0E0,0E0,0E0,0E0,0E0,0E0,0E0,0E0,0E0,0E0,0E0,0E0,0E0,0E0,0E0,0E0,0E0,0E0,0E0,0E0,0E0,0E0,0E0,0E0,0E0,0E0,0E0,0E0,0E0,0E0,0E0,0E0,0E0,0E0,0E0,0E0,0E0,0E0,0E0,0E0,0E0,0E0,0E0],"parents":[2147483647,0,0,1,1,2,2,3,3,4,4,5,5,6,6,7,7,8,8,9,9,10,10,11,11,12,12,13,13,14,14,15,15,16,16,17,17,18,18,19,19,20,20,21,21,22,22,23,23,24,24,25,25,26,26,27,27,28,28,29,29,30,30,32,32,33,33,34,34,35,35,36,36,37,37,38,38,39,39,40,40,41,41,42,42,43,43,44,44,45,45,47,47,48,48,50,50,51,51,52,52,53,53,55,55,56,56,57,57,58,58,59,59,60,60,61,61,62,62],"right_children":[2,4,6,8,10,12,14,16,18,20,22,24,26,28,30,32,34,36,38,40,42,44,46,48,50,52,54,56,58,60,62,-1,64,66,68,70,72,74,76,78,80,82,84,86,88,90,-1,92,94,-1,96,98,100,102,-1,104,106,108,110,112,114,116,118,-1,-1,-1,-1,-1,-1,-1,-1,-1,-1,-1,-1,-1,-1,-1,-1,-1,-1,-1,-1,-1,-1,-1,-1,-1,-1,-1,-1,-1,-1,-1,-1,-1,-1,-1,-1,-1,-1,-1,-1,-1,-1,-1,-1,-1,-1,-1,-1,-1,-1,-1,-1,-1,-1,-1,-1],"split_conditions":[5.89E0,1.7533146E1,1.0260834E1,2.7477353E2,1.605599E2,1.9022177E1,1.5273505E1,3.6826527E1,3.0516492E2,7.743303E1,2.4063513E1,1.7565508E2,2.6250393E1,1.4775414E1,8.700001E0,-8.6416674E-1,1.2445713E2,2.940792E2,-1.0600001E0,2.000512E1,4.7958338E-1,2.902249E2,2.9743756E2,3.1689623E1,6.1920834E0,5.956667E0,1.95E1,8.6010376E1,2.1998335E1,2.3958755E1,1.835647E1,2.0831053E0,2.3254166E0,1.4830076E1,1.0495713E1,1.4483334E0,1E-1,3.3265015E2,1.6000001E0,1.3000002E0,8.9625E-1,1.0622602E2,1.7906157E1,6.025E-1,2.088E1,2.2217859E2,-1.8485113E0,1.2849528E1,1.7447933E1,-1.949766E0,8.156667E0,2.3828083E1,8E-1,3.4999995E0,1.3323923E0,1.662082E1,2.2462323E2,1.1928989E1,2E-1,2.1076608E2,1.1854878E2,1.6800856E1,4.2400005E1,-1.6334136E0,3.7813988E-1,5.6039047E0,1.1264723E1,6.6513042E0,2.9567564E0,-1.1613461E0,1.1352171E0,4.1052804E0,1.198117E0,1.701873E0,-6.349135E-1,-1.8360538E0,-1.9528371E-1,2.217713E0,5.4494385E-2,1.1942832E-1,-1.5471687E0,5.73159E-1,7.6924434E0,6.652446E0,2.0020258E0,2.1229904E0,4.841402E-1,-9.9955547E-1,-1.9558629E0,-1.356599E0,-3.7402517E-1,3.4997346E0,-1.1410613E0,2.5780184E0,6.6485887E0,1.316016E0,-8.790642E-2,-3.5945222E-1,5.545845E0,-1.0274034E0,1.7770453E-1,-8.983025E-1,-1.6108258E0,-2.542803E-1,-1.5449272E0,1.3516351E0,-6.751197E-1,-1.3951628E0,-7.812472E-1,-5.686447E-1,4.4318023E-1,-1.0838434E0,-1.3391253E0,1.7781958E-1,-8.319314E-1,-1.7646477E-1,1.404346E0,-7.307195E-1,1.5427675E0],"split_indices":[0,2,0,3,3,2,2,3,3,3,2,3,2,0,1,0,3,3,0,2,0,3,3,3,0,0,1,3,0,0,2,0,0,2,2,0,1,3,1,1,0,3,2,0,2,3,0,2,2,0,0,2,1,1,0,3,3,2,1,3,3,2,1,0,0,0,0,0,0,0,0,0,0,0,0,0,0,0,0,0,0,0,0,0,0,0,0,0,0,0,0,0,0,0,0,0,0,0,0,0,0,0,0,0,0,0,0,0,0,0,0,0,0,0,0,0,0,0,0],"split_type":[0,0,0,0,0,0,0,0,0,0,0,0,0,0,0,0,0,0,0,0,0,0,0,0,0,0,0,0,0,0,0,0,0,0,0,0,0,0,0,0,0,0,0,0,0,0,0,0,0,0,0,0,0,0,0,0,0,0,0,0,0,0,0,0,0,0,0,0,0,0,0,0,0,0,0,0,0,0,0,0,0,0,0,0,0,0,0,0,0,0,0,0,0,0,0,0,0,0,0,0,0,0,0,0,0,0,0,0,0,0,0,0,0,0,0,0,0,0,0],"sum_hessian":[1.77E3,4.98E2,1.272E3,2.09E2,2.89E2,3.45E2,9.27E2,1.67E2,4.2E1,7.3E1,2.16E2,1.28E2,2.17E2,2.51E2,6.76E2,1.6E1,1.51E2,2.4E1,1.8E1,3.2E1,4.1E1,1.07E2,1.09E2,5.8E1,7E1,1.24E2,9.3E1,7.7E1,1.74E2,6.41E2,3.5E1,4E0,1.2E1,4.9E1,1.02E2,1.4E1,1E1,7E0,1.1E1,9E0,2.3E1,1.6E1,2.5E1,8.6E1,2.1E1,9.8E1,1.1E1,1.1E1,4.7E1,4E0,6.6E1,4E0,1.2E2,9.2E1,1E0,2.2E1,5.5E1,1.33E2,4.1E1,6E2,4.1E1,1.1E1,2.4E1,7E0,5E0,3.4E1,1.5E1,1.8E1,8.4E1,6E0,8E0,5E0,5E0,3E0,4E0,1E1,1E0,7E0,2E0,1.2E1,1.1E1,3E0,1.3E1,2E0,2.3E1,1.6E1,7E1,1.6E1,5E0,1.6E1,8.2E1,2E0,9E0,3.8E1,9E0,3.5E1,3.1E1,3E0,1E0,7.2E1,4.8E1,4.7E1,4.5E1,1E0,2.1E1,3.2E1,2.3E1,4.9E1,8.4E1,2.9E1,1.2E1,2.29E2,3.71E2,1.7E1,2.4E1,5E0,6E0,2.3E1,1E0],"tree_param":{"num_deleted":"0","num_feature":"4","num_nodes":"119","size_leaf_vector":"1"}},{"base_weights":[5.7998337E-2,4.331491E0,-1.6500944E0,8.316897E0,8.722924E-1,4.3683013E-1,-2.2706323E0,1.0325979E1,8.6597776E-1,7.5582643E0,-2.792577E-1,4.2693744E0,-1.9502908E0,-1.6978474E0,-2.747452E0,6.254639E-1,1.1367798E1,3.5159857E0,-2.2617807E0,1.3634832E1,7.999552E-1,1.9701427E0,-1.3385392E0,7.8218894E0,1.3821499E0,1.3564756E0,-2.419312E0,-5.6488585E-1,-2.1521058E0,-2.7940211E0,1.7930053E0,5.2772E0,-9.6681243E-1,1.6763205E1,7.8525634E0,8.392516E-1,7.015027E0,1.1929727E0,-3.754501E0,1.7551027E1,-2.407197E0,3.702965E0,-3.1596084E0,-4.9915224E-2,3.8360913E0,9.865488E-1,-2.264991E0,3.5847833E0,1.3502427E1,-4.6802464E0,2.3490484E0,-2.1633487E0,6.148582E0,-3.7211053E0,-1.2575233E0,-3.1530826E0,2.8600374E-1,-2.6918778E0,-8.945648E-1,-2.140636E0,-3.1220725E0,2.9506307E0,-5.9926826E-1,4.7677648E-1,1.7405618E0,-8.512342E-1,1.002584E0,3.941982E0,8.389428E0,4.8317943E0,1.8101387E0,6.262088E-1,-1.704316E0,2.8433633E0,5.0143844E-1,1.3189515E0,-4.825343E-1,-1.252403E0,4.452457E-1,2.9517744E0,6.5896044E0,-1.0159019E0,2.2640592E-1,-4.5084003E-3,4.458586E0,-4.312507E-1,-1.837396E0,5.1170313E-1,-9.16781E-1,1.5364078E0,2.9676728E-2,-3.737703E-1,2.2246945E0,-1.484667E0,-6.210188E-1,2.8889677E-1,3.618504E0,1.7952402E0,5.3006253E0,-1.5762836E0,-1.3198758E-2,1.1908691E0,-3.6076263E-1,-1.7506251E0,1.5752062E-1,-2.0997657E-1,2.7550933E0,-1.3204727E0,-2.9379085E-1,3.235595E-1,-6.4245605E-1,-1.247428E0,3.0907667E-1,2.7062712E0,-5.449835E-2,-7.290319E-1,-1.2858635E0,-5.129358E-1,5.407977E-1,-6.963365E-1,1.0350661E0,-5.044116E-1,-1.0142916E0,-6.1024383E-2,1.5363398E0],"categories":[],"categories_nodes":[],"categories_segments":[],"categories_sizes":[],"default_left":[0,0,0,0,0,0,0,0,0,0,0,0,0,0,0,0,0,0,0,0,0,0,0,0,0,0,0,0,0,0,0,0,0,0,0,0,0,0,0,0,0,0,0,0,0,0,0,0,0,0,0,0,0,0,0,0,0,0,0,0,0,0,0,0,0,0,0,0,0,0,0,0,0,0,0,0,0,0,0,0,0,0,0,0,0,0,0,0,0,0,0,0,0,0,0,0,0,0,0,0,0,0,0,0,0,0,0,0,0,0,0,0,0,0,0,0,0,0,0,0,0,0,0,0,0],"id":2,"left_children":[1,3,5,7,9,11,13,15,17,19,21,23,25,27,29,31,33,35,37,39,41,43,45,47,49,51,53,55,57,59,61,63,65,67,69,71,73,75,77,79,81,83,85,87,89,91,93,95,97,99,101,103,105,107,109,111,113,115,117,119,121,123,-1,-1,-1,-1,-1,-1,-1,-1,-1,-1,-1,-1,-1,-1,-1,-1,-1,-1,-1,-1,-1,-1,-1,-1,-1,-1,-1,-1,-1,-1,-1,-1,-1,-1,-1,-1,-1,-1,-1,-1,-1,-1,-1,-1,-1,-1,-1,-1,-1,-1,-1,-1,-1,-1,-1,-1,-1,-1,-1,-1,-1,-1,-1],"loss_changes":[1.2934601E4,6.968619E3,1.6404814E3,3.5088926E3,2.0963015E3,2.6706118E3,2.61896E2,1.8625332E3,4.3067026E2,1.6317859E3,5.5781744E2,1.1379629E3,2.8245154E2,2.2832141E2,1.1728662E2,1.458322E2,3.035707E3,2.5636072E2,1.2824655E2,1.3615469E3,2.4159296E2,2.8289084E2,3.4473358E2,1.1550486E3,3.802826E2,4.012511E2,2.3428131E2,2.8499457E2,2.1344568E2,1.0606152E2,3.2222397E1,4.5417786E-1,1.3038432E2,2.2706484E3,1.4489585E3,1.5020549E2,1.4208295E2,7.8867065E1,4.3615448E1,3.625957E2,1.8035297E1,4.980918E2,3.7150887E1,2.004743E2,1.8682062E2,6.6946063E2,4.939673E1,6.55125E2,5.5206445E2,2.3721039E1,3.213209E2,1.4127274E2,2.1428412E2,1.337522E2,1.7784023E2,1.388215E2,4.0196936E2,8.223596E1,2.1636903E2,1.8863177E2,1.24118164E2,3.5271015E1,0E0,0E0,0E0,0E0,0E0,0E0,0E0,0E0,0E0,0E0,0E0,0E0,0E0,0E0,0E0,0E0,0E0,0E0,0E0,0E0,0E0,0E0,0E0,0E0,0E0,0E0,0E0,0E0,0E0,0E0,0E0,0E0,0E0,0E0,0E0,0E0,0E0,0E0,0E0,0E0,0E0,0E0,0E0,0E0,0E0,0E0,0E0,0E0,0E0,0E0,0E0,0E0,0E0,0E0,0E0,0E0,0E0,0E0,0E0,0E0,0E0,0E0,0E0],"parents":[2147483647,0,0,1,1,2,2,3,3,4,4,5,5,6,6,7,7,8,8,9,9,10,10,11,11,12,12,13,13,14,14,15,15,16,16,17,17,18,18,19,19,20,20,21,21,22,22,23,23,24,24,25,25,26,26,27,27,28,28,29,29,30,30,31,31,32,32,33,33,34,34,35,35,36,36,37,37,38,38,39,39,40,40,41,41,42,42,43,43,44,44,45,45,46,46,47,47,48,48,49,49,50,50,51,51,52,52,53,53,54,54,55,55,56,56,57,57,58,58,59,59,60,60,61,61],"right_children":[2,4,6,8,10,12,14,16,18,20,22,24,26,28,30,32,34,36,38,40,42,44,46,48,50,52,54,56,58,60,62,64,66,68,70,72,74,76,78,80,82,84,86,88,90,92,94,96,98,100,102,104,106,108,110,112,114,116,118,120,122,124,-1,-1,-1,-1,-1,-1,-1,-1,-1,-1,-1,-1,-1,-1,-1,-1,-1,-1,-1,-1,-1,-1,-1,-1,-1,-1,-1,-1,-1,-1,-1,-1,-1,-1,-1,-1,-1,-1,-1,-1,-1,-1,-1,-1,-1,-1,-1,-1,-1,-1,-1,-1,-1,-1,-1,-1,-1,-1,-1,-1,-1,-1,-1],"split_conditions":[5.956667E0,1.8175545E1,9.535833E0,2.7477353E2,2.5041667E-1,1.909358E1,1.7786331E1,3.6826527E1,3.0516492E2,2.1734581E1,2.0920578E2,1.7565508E2,1.4626392E2,1.4775414E1,2.7600002E1,-8.6416674E-1,1.4219795E2,2.940792E2,-1.0600001E0,2.752563E2,1.783036E2,3.6295834E0,4E-1,1.258978E2,1.9600967E2,8.062073E1,2.47023E2,1.00201385E2,2.1048334E1,2.0038019E2,1.8277498E1,-7.4475007E0,1.5273505E1,8E-1,1.0495713E1,4E-1,3.312917E0,3.3265015E2,1.7786331E1,-1.3495831E0,7E-1,1.00201385E2,2.8267566E2,2.1734581E1,1.1E0,2E-1,1.8720001E1,1.7447933E1,6.8941655E0,1.3000002E0,6E-1,1E-1,7.1316667E0,5.7999997E0,2.5787415E2,2E-1,1.21153725E2,2.0435831E1,6E-1,2.969727E1,1.1021251E1,1.609625E1,-5.9926826E-1,4.7677648E-1,1.7405618E0,-8.512342E-1,1.002584E0,3.941982E0,8.389428E0,4.8317943E0,1.8101387E0,6.262088E-1,-1.704316E0,2.8433633E0,5.0143844E-1,1.3189515E0,-4.825343E-1,-1.252403E0,4.452457E-1,2.9517744E0,6.5896044E0,-1.0159019E0,2.2640592E-1,-4.5084003E-3,4.458586E0,-4.312507E-1,-1.837396E0,5.1170313E-1,-9.16781E-1,1.5364078E0,2.9676728E-2,-3.737703E-1,2.2246945E0,-1.484667E0,-6.210188E-1,2.8889677E-1,3.618504E0,1.7952402E0,5.3006253E0,-1.5762836E0,-1.3198758E-2,1.1908691E0,-3.6076263E-1,-1.7506251E0,1.5752062E-1,-2.0997657E-1,2.7550933E0,-1.3204727E0,-2.9379085E-1,3.235595E-1,-6.4245605E-1,-1.247428E0,3.0907667E-1,2.7062712E0,-5.449835E-2,-7.290319E-1,-1.2858635E0,-5.129358E-1,5.407977E-1,-6.963365E-1,1.0350661E0,-5.044116E-1,-1.0142916E0,-6.1024383E-2,1.5363398E0],"split_indices":[0,2,0,3,0,2,2,3,3,2,3,3,3,0,1,0,3,3,0,3,3,0,1,3,3,3,3,3,0,3,0,0,2,1,2,1,0,3,2,0,1,3,3,2,1,1,2,2,0,1,1,1,0,1,3,1,3,0,1,2,0,0,0,0,0,0,0,0,0,0,0,0,0,0,0,0,0,0,0,0,0,0,0,0,0,0,0,0,0,0,0,0,0,0,0,0,0,0,0,0,0,0,0,0,0,0,0,0,0,0,0,0,0,0,0,0,0,0,0,0,0,0,0,0,0],"split_type":[0,0,0,0,0,0,0,0,0,0,0,0,0,0,0,0,0,0,0,0,0,0,0,0,0,0,0,0,0,0,0,0,0,0,0,0,0,0,0,0,0,0,0,0,0,0,0,0,0,0,0,0,0,0,0,0,0,0,0,0,0,0,0,0,0,0,0,0,0,0,0,0,0,0,0,0,0,0,0,0,0,0,0,0,0,0,0,0,0,0,0,0,0,0,0,0,0,0,0,0,0,0,0,0,0,0,0,0,0,0,0,0,0,0,0,0,0,0,0,0,0,0,0,0,0],"sum_hessian":[1.77E3,5.05E2,1.265E3,2.34E2,2.71E2,2.9E2,9.75E2,1.84E2,5E1,3.9E1,2.32E2,1.11E2,1.79E2,4.45E2,5.3E2,1.8E1,1.66E2,2.7E1,2.3E1,2E1,1.9E1,7.4E1,1.58E2,4.9E1,6.2E1,2.2E1,1.57E2,1.28E2,3.17E2,5.25E2,5E0,4E0,1.4E1,6.4E1,1.02E2,1.6E1,1.1E1,7E0,1.6E1,1.6E1,4E0,1.1E1,8E0,3.6E1,3.8E1,4.5E1,1.13E2,2.9E1,2E1,8E0,5.4E1,1.3E1,9E0,7.3E1,8.4E1,3.1E1,9.7E1,2.21E2,9.6E1,1.78E2,3.47E2,4E0,1E0,1E0,3E0,1E1,4E0,5E1,1.4E1,1.7E1,8.5E1,1.4E1,2E0,7E0,4E0,3E0,4E0,1.5E1,1E0,7E0,9E0,3E0,1E0,9E0,2E0,6E0,2E0,2.3E1,1.3E1,2.8E1,1E1,3.4E1,1.1E1,6E0,1.07E2,2.3E1,6E0,8E0,1.2E1,7E0,1E0,3.7E1,1.7E1,5E0,8E0,3E0,6E0,5.8E1,1.5E1,2.3E1,6.1E1,2.5E1,6E0,4E0,9.3E1,1.92E2,2.9E1,7.4E1,2.2E1,1.73E2,5E0,5.4E1,2.93E2,2E0,2E0],"tree_param":{"num_deleted":"0","num_feature":"4","num_nodes":"125","size_leaf_vector":"1"}},{"base_weights":[6.553771E-2,4.9689565E0,-7.137928E-1,7.002985E0,-1.5804212E-1,9.613736E-1,-1.5730387E0,-4.8868152E-1,8.63047E0,2.6903317E0,-3.6245587E0,4.9913535E0,-2.6316005E-1,-1.0108929E0,-1.9532824E0,5.586171E0,-3.1086748E0,9.470169E0,-1.3254285E0,7.498448E0,7.7379334E-1,-1.1866664E0,-4.5269227E0,7.0052724E0,5.773376E-1,2.7039928E0,-8.700975E-1,-2.5306022E0,-3.9540955E-1,-1.4979292E0,-1.8670979E0,8.308138E0,-5.7381284E-1,-5.075395E0,-5.0176257E-1,1.7610785E1,8.509351E0,-2.4788451E-1,-1.3426297E0,3.7440298E0,4.8786664E0,4.508905E0,-1.4293658E0,1.4879335E0,-3.217722E0,-1.8481452E0,-3.0367413E0,5.695612E0,2.629685E1,1.7860923E0,-4.3298483E0,-1.9693046E0,4.5562773E0,5.7990924E-2,-1.6353241E0,-2.6818652E0,1.24853E0,-1.3210945E0,9.88624E-1,-1.2838876E0,-2.142982E0,4.7716504E-1,3.203119E0,-5.7736784E-1,5.2176404E-1,-8.837515E-1,-3.3575914E0,1.8130761E0,-5.281969E-1,6.9394946E0,1.2453228E0,-4.4902215E0,2.7102313E0,2.7208084E-1,-3.5067627E-1,-2.8910422E-1,1.8775495E0,-9.7372013E-1,3.4536183E0,-1.1465524E0,3.3181387E-1,-3.0506653E-1,1.7260833E0,-1.3377128E0,-1.4701615E-1,-1.0186714E0,2.442072E-1,2.5089426E0,1.61464E-1,2.0761697E0,8.823235E0,-2.3296136E-1,1.2278745E0,3.3464414E-1,-1.5801321E0,-9.711978E-1,7.4466753E-1,-8.91301E-1,1.7644688E0,6.354096E-1,-2.0347677E-1,-8.048917E-1,-2.6277506E-1,-1.0354781E0,-4.5585266E-1,-7.666969E-1,-2.3908444E-1,2.5626876E0,1.7363861E-1,1.76414E0,-4.4057468E-1,-6.780835E-1,-1.7297861E-1],"categories":[],"categories_nodes":[],"categories_segments":[],"categories_sizes":[],"default_left":[0,0,0,0,0,0,0,0,0,0,0,0,0,0,0,0,0,0,0,0,0,0,0,0,0,0,0,0,0,0,0,0,0,0,0,0,0,0,0,0,0,0,0,0,0,0,0,0,0,0,0,0,0,0,0,0,0,0,0,0,0,0,0,0,0,0,0,0,0,0,0,0,0,0,0,0,0,0,0,0,0,0,0,0,0,0,0,0,0,0,0,0,0,0,0,0,0,0,0,0,0,0,0,0,0,0,0,0,0,0,0,0,0],"id":3,"left_children":[1,3,5,7,9,11,13,15,17,19,21,23,25,27,29,31,33,35,37,39,41,43,45,47,49,51,53,55,57,-1,59,61,63,65,67,69,71,73,-1,75,-1,77,79,81,83,-1,85,87,89,91,93,95,97,99,101,103,-1,105,107,109,111,-1,-1,-1,-1,-1,-1,-1,-1,-1,-1,-1,-1,-1,-1,-1,-1,-1,-1,-1,-1,-1,-1,-1,-1,-1,-1,-1,-1,-1,-1,-1,-1,-1,-1,-1,-1,-1,-1,-1,-1,-1,-1,-1,-1,-1,-1,-1,-1,-1,-1,-1,-1],"loss_changes":[6.771218E3,2.5352227E3,2.2023242E3,2.1257246E3,7.0092676E2,2.5624985E3,2.141289E2,5.2668E2,1.2080264E3,3.5358035E2,6.502374E1,1.0715815E3,7.2090234E2,3.824952E2,1.4839233E2,1.7244E2,1.15375854E2,8.8260254E2,3.9621815E1,3.0104535E2,2.4508719E2,5.9110367E1,3.728116E1,1.9472527E3,2.3906529E2,5.975995E2,2.3588057E2,1.3061359E2,3.7669153E2,0E0,9.169617E1,9.4411835E1,1.5844469E1,1.36363E2,1.0127956E2,8.6999854E2,1.6135576E3,1.1696454E1,0E0,1.1256771E2,0E0,6.3474133E2,1.1947943E2,5.9274582E1,1.8130295E1,0E0,2.2108856E1,1.0823423E3,9.814282E1,1.9234738E2,4.6704803E1,1.2092847E2,5.0628796E2,2.3045805E2,1.424476E2,9.8540344E1,0E0,1.1185129E2,3.603494E2,2.6137042E2,7.163782E1,0E0,0E0,0E0,0E0,0E0,0E0,0E0,0E0,0E0,0E0,0E0,0E0,0E0,0E0,0E0,0E0,0E0,0E0,0E0,0E0,0E0,0E0,0E0,0E0,0E0,0E0,0E0,0E0,0E0,0E0,0E0,0E0,0E0,0E0,0E0,0E0,0E0,0E0,0E0,0E0,0E0,0E0,0E0,0E0,0E0,0E0,0E0,0E0,0E0,0E0,0E0,0E0],"parents":[2147483647,0,0,1,1,2,2,3,3,4,4,5,5,6,6,7,7,8,8,9,9,10,10,11,11,12,12,13,13,14,14,15,15,16,16,17,17,18,18,19,19,20,20,21,21,22,22,23,23,24,24,25,25,26,26,27,27,28,28,30,30,31,31,32,32,33,33,34,34,35,35,36,36,37,37,39,39,41,41,42,42,43,43,44,44,46,46,47,47,48,48,49,49,50,50,51,51,52,52,53,53,54,54,55,55,57,57,58,58,59,59,60,60],"right_children":[2,4,6,8,10,12,14,16,18,20,22,24,26,28,30,32,34,36,38,40,42,44,46,48,50,52,54,56,58,-1,60,62,64,66,68,70,72,74,-1,76,-1,78,80,82,84,-1,86,88,90,92,94,96,98,100,102,104,-1,106,108,110,112,-1,-1,-1,-1,-1,-1,-1,-1,-1,-1,-1,-1,-1,-1,-1,-1,-1,-1,-1,-1,-1,-1,-1,-1,-1,-1,-1,-1,-1,-1,-1,-1,-1,-1,-1,-1,-1,-1,-1,-1,-1,-1,-1,-1,-1,-1,-1,-1,-1,-1,-1,-1],"split_conditions":[2.456667E0,2.5179996E2,9.037916E0,5.1232418E1,1.8175545E1,1.5893093E1,1.9289482E2,-1.7874996E-1,2.5982424E1,2.7477353E2,2.000512E1,2.406925E2,1.5468512E2,7.155518E1,9.339999E0,1.3104198E1,1.7447933E1,7.6003426E1,1.5837501E0,2.695996E2,-1.6974999E0,2.5041667E-1,1E0,2.321326E2,3.1673563E2,5.1232418E1,2.4063513E1,1.4299999E1,1E-1,-1.4979292E0,1.3956666E1,9.346143E0,-2.9641669E0,1.5546833E1,1.8079027E1,1.7208603E1,8.6010376E1,3E-1,-1.3426297E0,1.4799459E1,4.8786664E0,-4.2995834E0,2E-1,-1.0600001E0,1.0962499E0,-1.8481452E0,3.1987933E2,1.7377745E2,4.5108333E0,2.7059158E2,2.6733334E0,2.6000001E0,1.6676977E1,4.5108333E0,2.4834389E2,1.8460833E1,1.24853E0,9.831868E1,9.535833E0,1.1570515E1,8E0,4.7716504E-1,3.203119E0,-5.7736784E-1,5.2176404E-1,-8.837515E-1,-3.3575914E0,1.8130761E0,-5.281969E-1,6.9394946E0,1.2453228E0,-4.4902215E0,2.7102313E0,2.7208084E-1,-3.5067627E-1,-2.8910422E-1,1.8775495E0,-9.7372013E-1,3.4536183E0,-1.1465524E0,3.3181387E-1,-3.0506653E-1,1.7260833E0,-1.3377128E0,-1.4701615E-1,-1.0186714E0,2.442072E-1,2.5089426E0,1.61464E-1,2.0761697E0,8.823235E0,-2.3296136E-1,1.2278745E0,3.3464414E-1,-1.5801321E0,-9.711978E-1,7.4466753E-1,-8.91301E-1,1.7644688E0,6.354096E-1,-2.0347677E-1,-8.048917E-1,-2.6277506E-1,-1.0354781E0,-4.5585266E-1,-7.666969E-1,-2.3908444E-1,2.5626876E0,1.7363861E-1,1.76414E0,-4.4057468E-1,-6.780835E-1,-1.7297861E-1],"split_indices":[0,3,0,3,2,2,3,0,2,3,2,3,3,3,0,2,2,3,0,3,0,0,1,3,3,3,2,1,1,0,0,2,0,2,2,2,3,1,0,2,0,0,1,0,0,0,3,3,0,3,0,1,2,0,3,0,0,3,0,2,1,0,0,0,0,0,0,0,0,0,0,0,0,0,0,0,0,0,0,0,0,0,0,0,0,0,0,0,0,0,0,0,0,0,0,0,0,0,0,0,0,0,0,0,0,0,0,0,0,0,0,0,0],"split_type":[0,0,0,0,0,0,0,0,0,0,0,0,0,0,0,0,0,0,0,0,0,0,0,0,0,0,0,0,0,0,0,0,0,0,0,0,0,0,0,0,0,0,0,0,0,0,0,0,0,0,0,0,0,0,0,0,0,0,0,0,0,0,0,0,0,0,0,0,0,0,0,0,0,0,0,0,0,0,0,0,0,0,0,0,0,0,0,0,0,0,0,0,0,0,0,0,0,0,0,0,0,0,0,0,0,0,0,0,0,0,0,0,0],"sum_hessian":[1.77E3,2.42E2,1.528E3,1.73E2,6.9E1,5.18E2,1.01E3,3.1E1,1.42E2,3.8E1,3.1E1,1.2E2,3.98E2,4.09E2,6.01E2,9E0,2.2E1,1.31E2,1.1E1,1E1,2.8E1,9E0,2.2E1,8.2E1,3.8E1,6.7E1,3.31E2,1.17E2,2.92E2,1.5E1,5.86E2,6E0,3E0,1.2E1,1E1,1.2E1,1.19E2,9E0,2E0,8E0,2E0,1E1,1.8E1,4E0,5E0,9E0,1.3E1,7.8E1,4E0,3.1E1,7E0,1.9E1,4.8E1,1.5E2,1.81E2,1.15E2,2E0,1.75E2,1.17E2,1.9E2,3.96E2,2E0,4E0,2E0,1E0,1E1,2E0,1E0,9E0,8E0,4E0,2E0,1.17E2,4E0,5E0,3E0,5E0,5E0,5E0,9E0,9E0,3E0,1E0,3E0,2E0,1.2E1,1E0,5.1E1,2.7E1,1E0,3E0,1.5E1,1.6E1,1E0,6E0,1.5E1,4E0,7E0,4.1E1,3.9E1,1.11E2,7.5E1,1.06E2,6.8E1,4.7E1,5.1E1,1.24E2,5E0,1.12E2,4E0,1.86E2,3.68E2,2.8E1],"tree_param":{"num_deleted":"0","num_feature":"4","num_nodes":"113","size_leaf_vector":"1"}},{"base_weights":[5.993072E-2,5.297708E0,-3.171748E-1,6.6888304E0,6.450801E-2,1.0213583E0,-1.041658E0,8.089397E0,7.345179E-1,-5.0394015E0,1.519696E0,3.8626406E0,-9.5846616E-2,-4.809383E-2,-1.2567631E0,4.794542E0,1.2981691E1,2.0749137E0,-2.515492E0,-1.8893349E0,1.8787609E-1,4.1469884E0,-1.2457508E0,-2.9202616E0,4.7715745E0,2.514332E0,-6.1910355E-1,4.804746E0,-4.273769E-1,-1.7499183E0,-9.742295E-1,3.2433276E0,7.9393725E0,4.6067076E0,1.9115107E1,-9.995254E-2,3.0248225E0,-9.5941675E-1,-2.3007289E-1,1.1497108E-1,7.4878416E0,-1.8262856E0,-1.5280214E-1,2.0843053E0,-5.7753596E0,1.3332827E1,2.608772E0,1.1939788E0,1.0317055E1,-2.9416232E0,-3.83444E-1,7.374558E-1,1.4788609E1,-6.058672E-1,7.533041E0,-1.5862938E0,-3.0796332E0,-1.1547629E0,2.3435941E-1,-1.8829726E-1,2.4340324E0,2.8300147E0,-1.0203269E0,7.1890416E0,3.1995795E0,-2.894487E-1,3.911521E-1,1.1423954E0,-4.1556853E-1,2.9206028E0,-5.6244904E-1,2.3726545E-1,-5.2981615E-1,-6.567005E-1,2.071459E0,-2.5050535E0,-7.1264714E-1,-6.638661E-2,5.2966676E0,1.5146945E0,3.6777282E-1,-2.684562E0,6.18818E-1,4.7723365E0,1.1815804E0,-2.8491023E0,-5.807991E-1,9.9667504E-2,-3.6546507E-1,-7.380674E-1,1.1436682E0,-6.78329E-1,6.367663E0,-7.755419E-1,-4.9465172E-2,5.3509536E0,-5.5408585E-1,1.6367491E-2,-5.488075E-1,-1.4839599E0,-7.508765E-1,-3.0829666E-2,-4.0885603E-1,3.8715053E-1,-2.7489144E-1],"categories":[],"categories_nodes":[],"categories_segments":[],"categories_sizes":[],"default_left":[0,0,0,0,0,0,0,0,0,0,0,0,0,0,0,0,0,0,0,0,0,0,0,0,0,0,0,0,0,0,0,0,0,0,0,0,0,0,0,0,0,0,0,0,0,0,0,0,0,0,0,0,0,0,0,0,0,0,0,0,0,0,0,0,0,0,0,0,0,0,0,0,0,0,0,0,0,0,0,0,0,0,0,0,0,0,0,0,0,0,0,0,0,0,0,0,0,0,0,0,0,0,0,0,0],"id":4,"left_children":[1,3,5,7,9,11,13,15,17,19,21,23,25,27,29,31,33,35,37,-1,-1,39,41,43,45,47,49,51,53,55,57,59,-1,61,63,65,-1,-1,-1,67,69,-1,71,73,75,77,79,81,83,85,87,89,91,93,95,97,99,101,103,-1,-1,-1,-1,-1,-1,-1,-1,-1,-1,-1,-1,-1,-1,-1,-1,-1,-1,-1,-1,-1,-1,-1,-1,-1,-1,-1,-1,-1,-1,-1,-1,-1,-1,-1,-1,-1,-1,-1,-1,-1,-1,-1,-1,-1,-1],"loss_changes":[3.49975E3,8.658911E2,1.6040521E3,7.779634E2,2.0076419E2,1.8446354E3,2.2926196E2,1.162833E3,8.798912E1,4.672136E1,1.577445E2,1.0250286E3,5.724586E2,3.5544867E2,1.2118677E2,1.4940654E3,1.45296E3,2.4483112E2,4.708496E0,0E0,0E0,1.4731328E2,5.728083E1,2.9780823E2,2.65008E3,7.088462E2,1.8988808E2,5.575958E2,2.5889755E2,6.47384E1,1.2311194E2,8.534388E2,0E0,5.7319824E2,4.4087793E2,1.58272705E1,0E0,0E0,0E0,3.8516468E1,1.4450772E2,0E0,1.6620789E1,1.7991254E2,9.396683E1,1.7030405E3,3.886239E2,5.559471E2,2.9394775E2,1.9256631E2,1.9038464E2,1.17532425E2,4.869842E2,1.5319113E2,4.1952914E2,1.1456476E2,2.4225769E1,1.0712622E2,9.1112114E1,0E0,0E0,0E0,0E0,0E0,0E0,0E0,0E0,0E0,0E0,0E0,0E0,0E0,0E0,0E0,0E0,0E0,0E0,0E0,0E0,0E0,0E0,0E0,0E0,0E0,0E0,0E0,0E0,0E0,0E0,0E0,0E0,0E0,0E0,0E0,0E0,0E0,0E0,0E0,0E0,0E0,0E0,0E0,0E0,0E0,0E0],"parents":[2147483647,0,0,1,1,2,2,3,3,4,4,5,5,6,6,7,7,8,8,9,9,10,10,11,11,12,12,13,13,14,14,15,15,16,16,17,17,18,18,21,21,22,22,23,23,24,24,25,25,26,26,27,27,28,28,29,29,30,30,31,31,33,33,34,34,35,35,39,39,40,40,42,42,43,43,44,44,45,45,46,46,47,47,48,48,49,49,50,50,51,51,52,52,53,53,54,54,55,55,56,56,57,57,58,58],"right_children":[2,4,6,8,10,12,14,16,18,20,22,24,26,28,30,32,34,36,38,-1,-1,40,42,44,46,48,50,52,54,56,58,60,-1,62,64,66,-1,-1,-1,68,70,-1,72,74,76,78,80,82,84,86,88,90,92,94,96,98,100,102,104,-1,-1,-1,-1,-1,-1,-1,-1,-1,-1,-1,-1,-1,-1,-1,-1,-1,-1,-1,-1,-1,-1,-1,-1,-1,-1,-1,-1,-1,-1,-1,-1,-1,-1,-1,-1,-1,-1,-1,-1,-1,-1,-1,-1,-1,-1],"split_conditions":[3.6291683E-1,2.752563E2,8.156667E0,2.1461555E1,2.8931104E2,1.609969E1,1.3891522E1,1.5192682E1,1.783036E2,-1.7874996E-1,-1.6974999E0,4.2791725E1,1.3299855E2,9.037916E0,1E-1,1.5000001E0,-1.3495831E0,1.00201385E2,-8.6416674E-1,-1.8893349E0,1.8787609E-1,-2.9641669E0,2.914143E2,1.2181625E1,1.1977399E2,7.1316667E0,1.4483334E0,8E-1,1.3779114E1,3.1094247E2,2.1048334E1,1.3909988E2,7.9393725E0,1.4687474E2,1.5468512E2,7.224974E1,3.0248225E0,-9.5941675E-1,-2.3007289E-1,9.585739E0,1.7786331E1,-1.8262856E0,-3.8916662E-1,3.069167E0,1E-1,1.5837501E0,1.2979984E1,1.6676977E1,7.6670833E0,2.0038019E2,1.4E0,1.2181625E1,8.298333E0,1.0163227E1,1.4279584E1,1.5192682E1,1.4917212E1,3E-1,1.9586117E1,-1.8829726E-1,2.4340324E0,2.8300147E0,-1.0203269E0,7.1890416E0,3.1995795E0,-2.894487E-1,3.911521E-1,1.1423954E0,-4.1556853E-1,2.9206028E0,-5.6244904E-1,2.3726545E-1,-5.2981615E-1,-6.567005E-1,2.071459E0,-2.5050535E0,-7.1264714E-1,-6.638661E-2,5.2966676E0,1.5146945E0,3.6777282E-1,-2.684562E0,6.18818E-1,4.7723365E0,1.1815804E0,-2.8491023E0,-5.807991E-1,9.9667504E-2,-3.6546507E-1,-7.380674E-1,1.1436682E0,-6.78329E-1,6.367663E0,-7.755419E-1,-4.9465172E-2,5.3509536E0,-5.5408585E-1,1.6367491E-2,-5.488075E-1,-1.4839599E0,-7.508765E-1,-3.0829666E-2,-4.0885603E-1,3.8715053E-1,-2.7489144E-1],"split_indices":[0,3,0,2,3,2,2,2,3,0,0,3,3,0,1,1,0,3,0,0,0,0,3,2,3,0,0,1,2,3,0,3,0,3,3,3,0,0,0,2,2,0,0,0,1,0,2,2,0,3,1,2,0,2,0,2,2,1,2,0,0,0,0,0,0,0,0,0,0,0,0,0,0,0,0,0,0,0,0,0,0,0,0,0,0,0,0,0,0,0,0,0,0,0,0,0,0,0,0,0,0,0,0,0,0],"split_type":[0,0,0,0,0,0,0,0,0,0,0,0,0,0,0,0,0,0,0,0,0,0,0,0,0,0,0,0,0,0,0,0,0,0,0,0,0,0,0,0,0,0,0,0,0,0,0,0,0,0,0,0,0,0,0,0,0,0,0,0,0,0,0,0,0,0,0,0,0,0,0,0,0,0,0,0,0,0,0,0,0,0,0,0,0,0,0,0,0,0,0,0,0,0,0,0,0,0,0,0,0,0,0,0,0],"sum_hessian":[1.77E3,1.18E2,1.652E3,9.3E1,2.5E1,5.8E2,1.072E3,7.5E1,1.8E1,5E0,2E1,1.63E2,4.17E2,1.91E2,8.81E2,4.6E1,2.9E1,1.3E1,5E0,4E0,1E0,1E1,1E1,1.9E1,1.44E2,6.9E1,3.48E2,1.3E1,1.78E2,3.19E2,5.62E2,4.4E1,2E0,1.3E1,1.6E1,1.1E1,2E0,3E0,2E0,5E0,5E0,1E0,9E0,7E0,1.2E1,2.8E1,1.16E2,6E1,9E0,3.1E1,3.17E2,1E1,3E0,1.75E2,3E0,2.86E2,3.3E1,4.89E2,7.3E1,2.5E1,1.9E1,8E0,5E0,9E0,7E0,7E0,4E0,1E0,4E0,4E0,1E0,6E0,3E0,4E0,3E0,6E0,6E0,7E0,2.1E1,4.1E1,7.5E1,4E0,5.6E1,4E0,5E0,3E0,2.8E1,1.71E2,1.46E2,5E0,5E0,1E0,2E0,3.1E1,1.44E2,1E0,2E0,3.7E1,2.49E2,6E0,2.7E1,8.1E1,4.08E2,3.8E1,3.5E1],"tree_param":{"num_deleted":"0","num_feature":"4","num_nodes":"105","size_leaf_vector":"1"}},{"base_weights":[6.23126E-2,2.7104213E0,-3.585852E-1,3.86841E0,-2.067281E-1,3.64623E-1,-8.2734895E-1,-1.4313413E-1,4.7390466E0,5.506937E0,-8.284301E-1,1.7610306E0,-5.157218E-1,-9.1239244E-1,5.131928E-1,7.089916E0,-1.4296384E0,3.8882465E0,1.0431366E1,-1.8631248E0,1.1500265E1,2.4846812E-1,-2.7589211E0,-2.1957543E0,2.448098E0,-1.6636615E0,-2.033829E-1,-3.3757508E-1,-1.1248246E0,3.6726108E0,-2.5347653E-1,-1.1612543E-1,1.1932652E1,1.5460713E0,-2.1437523E0,1.711452E1,3.426512E0,1.6749304E1,2.2523942E0,-4.0387397E0,6.995579E-1,9.710361E-1,3.9527485E0,-1.3099461E0,1.0744591E0,-1.4482248E0,-1.9161496E0,-1.1115875E1,-1.3182961E0,5.269663E0,1.0401026E0,2.8214388E0,-2.3545666E0,8.489436E-1,-1.1136569E0,-2.0654428E0,6.704471E-2,-1.2101667E0,1.13001E-1,5.9586465E-1,4.7519073E0,-1.1965114E0,1.5894958E0,-4.696312E-2,-5.293322E-3,4.3696004E-1,4.932734E0,-6.007135E-1,7.968711E-1,-3.2834172E-1,-1.192303E0,-6.0415447E-1,1.1174943E1,1.7031733E0,1.621698E-1,6.1158757E0,2.7105322E0,-3.5272247E-1,2.850174E0,-1.5418102E0,-2.7562267E-1,6.9829094E-1,-8.5329205E-1,9.6623117E-1,-1.5113635E-1,-1.0970107E-1,-6.605603E-1,-7.1033335E-1,-4.2918105E0,-5.8861446E-2,-1.4400918E0,2.6480503E0,2.1204917E-1,2.8695295E0,2.3155731E-1,-3.9911643E-1,4.3009324E0,9.7875017E-1,-7.712802E-1,-1.615261E0,3.090071E-1,-2.2809575E-1,-7.940996E-1,-1.10598005E-1,-7.1049196E-1,2.5263765E-1,-3.92074E-1,-3.4389743E-1,-7.539359E-1,-2.4249247E-1,6.0400677E-1,1.0402396E0,-4.5514715E-1,2.0273337E0,6.590486E-1,6.331218E-1,-6.223764E-1,-5.0841417E-2,1.6479354E0],"categories":[],"categories_nodes":[],"categories_segments":[],"categories_sizes":[],"default_left":[0,0,0,0,0,0,0,0,0,0,0,0,0,0,0,0,0,0,0,0,0,0,0,0,0,0,0,0,0,0,0,0,0,0,0,0,0,0,0,0,0,0,0,0,0,0,0,0,0,0,0,0,0,0,0,0,0,0,0,0,0,0,0,0,0,0,0,0,0,0,0,0,0,0,0,0,0,0,0,0,0,0,0,0,0,0,0,0,0,0,0,0,0,0,0,0,0,0,0,0,0,0,0,0,0,0,0,0,0,0,0,0,0,0,0,0,0,0,0],"id":5,"left_children":[1,3,5,7,9,11,13,15,17,19,21,23,25,27,29,31,33,35,37,39,41,43,45,47,49,51,53,55,57,59,61,63,65,67,69,71,73,75,77,79,-1,-1,-1,81,83,-1,85,87,89,91,93,95,97,99,101,103,105,107,109,111,113,115,117,-1,-1,-1,-1,-1,-1,-1,-1,-1,-1,-1,-1,-1,-1,-1,-1,-1,-1,-1,-1,-1,-1,-1,-1,-1,-1,-1,-1,-1,-1,-1,-1,-1,-1,-1,-1,-1,-1,-1,-1,-1,-1,-1,-1,-1,-1,-1,-1,-1,-1,-1,-1,-1,-1,-1,-1],"loss_changes":[1.9748986E3,8.2166003E2,5.1865375E2,6.083899E2,2.532159E2,7.4095886E2,1.0626428E2,3.079072E2,6.5199316E2,3.3062482E2,1.3373781E2,6.3880414E2,1.3232375E2,1.0622211E2,1.3657573E2,1.7587048E2,6.2814266E1,7.108419E2,8.924103E2,4.592445E1,1.2736572E1,5.5471394E1,3.0845123E1,2.592921E2,7.8509644E2,2.5144672E2,2.8065384E2,1.6583215E2,6.742847E1,3.369644E1,8.1849266E1,9.179182E-3,1.1778647E2,2.8954987E1,3.9828636E1,1.6156365E3,7.9587646E2,9.6369385E1,2.3480011E2,5.5801125E0,0E0,0E0,0E0,9.034097E1,9.647004E1,0E0,7.1688385E0,4.9850006E1,1.2799354E2,1.0649918E3,2.990465E2,5.4496423E2,9.224695E1,1.5904884E2,8.3048065E1,2.2252121E1,2.0663176E2,4.6696228E1,7.516161E1,2.9531702E1,2.6155594E1,9.439372E1,1.1079242E2,0E0,0E0,0E0,0E0,0E0,0E0,0E0,0E0,0E0,0E0,0E0,0E0,0E0,0E0,0E0,0E0,0E0,0E0,0E0,0E0,0E0,0E0,0E0,0E0,0E0,0E0,0E0,0E0,0E0,0E0,0E0,0E0,0E0,0E0,0E0,0E0,0E0,0E0,0E0,0E0,0E0,0E0,0E0,0E0,0E0,0E0,0E0,0E0,0E0,0E0,0E0,0E0,0E0,0E0,0E0,0E0],"parents":[2147483647,0,0,1,1,2,2,3,3,4,4,5,5,6,6,7,7,8,8,9,9,10,10,11,11,12,12,13,13,14,14,15,15,16,16,17,17,18,18,19,19,20,20,21,21,22,22,23,23,24,24,25,25,26,26,27,27,28,28,29,29,30,30,31,31,32,32,33,33,34,34,35,35,36,36,37,37,38,38,39,39,43,43,44,44,46,46,47,47,48,48,49,49,50,50,51,51,52,52,53,53,54,54,55,55,56,56,57,57,58,58,59,59,60,60,61,61,62,62],"right_children":[2,4,6,8,10,12,14,16,18,20,22,24,26,28,30,32,34,36,38,40,42,44,46,48,50,52,54,56,58,60,62,64,66,68,70,72,74,76,78,80,-1,-1,-1,82,84,-1,86,88,90,92,94,96,98,100,102,104,106,108,110,112,114,116,118,-1,-1,-1,-1,-1,-1,-1,-1,-1,-1,-1,-1,-1,-1,-1,-1,-1,-1,-1,-1,-1,-1,-1,-1,-1,-1,-1,-1,-1,-1,-1,-1,-1,-1,-1,-1,-1,-1,-1,-1,-1,-1,-1,-1,-1,-1,-1,-1,-1,-1,-1,-1,-1,-1,-1,-1],"split_conditions":[2.456667E0,2.5179996E2,1.0260834E1,5.1232418E1,1.008E1,1.9022177E1,8E0,-4.2995834E0,1.8483335E0,9.028754E0,2.000512E1,3.6295834E0,1E-1,1.5273505E1,1.1182971E2,-6.2099996E0,-1.7874996E-1,5.996927E1,1.7873556E1,2.9841754E2,-7.4475007E0,1.4799459E1,3E-1,2.5962498E0,1.5944383E2,3.8920834E0,2.6250393E1,7.155518E1,2.3958755E1,9.3E0,2.6890698E2,-7.4475007E0,8.854829E0,-2.9641669E0,3.8942314E1,7.962501E-1,3.6291683E-1,1.3164749E2,2.2991792E2,-4.2995834E0,6.995579E-1,9.710361E-1,3.9527485E0,-1.9620833E0,2.902249E2,-1.4482248E0,2.6001508E2,1.1928989E1,3.3545835E0,7.4170837E0,3.8920834E0,3.8170834E0,8.2505045E0,2.5962498E0,8.735832E0,9.693296E0,2.4834389E2,5.8999996E0,2.088E1,1.1756665E1,1.3979871E1,1.4652499E1,1.8752499E1,-4.696312E-2,-5.293322E-3,4.3696004E-1,4.932734E0,-6.007135E-1,7.968711E-1,-3.2834172E-1,-1.192303E0,-6.0415447E-1,1.1174943E1,1.7031733E0,1.621698E-1,6.1158757E0,2.7105322E0,-3.5272247E-1,2.850174E0,-1.5418102E0,-2.7562267E-1,6.9829094E-1,-8.5329205E-1,9.6623117E-1,-1.5113635E-1,-1.0970107E-1,-6.605603E-1,-7.1033335E-1,-4.2918105E0,-5.8861446E-2,-1.4400918E0,2.6480503E0,2.1204917E-1,2.8695295E0,2.3155731E-1,-3.9911643E-1,4.3009324E0,9.7875017E-1,-7.712802E-1,-1.615261E0,3.090071E-1,-2.2809575E-1,-7.940996E-1,-1.10598005E-1,-7.1049196E-1,2.5263765E-1,-3.92074E-1,-3.4389743E-1,-7.539359E-1,-2.4249247E-1,6.0400677E-1,1.0402396E0,-4.5514715E-1,2.0273337E0,6.590486E-1,6.331218E-1,-6.223764E-1,-5.0841417E-2,1.6479354E0],"split_indices":[0,3,0,3,2,2,1,0,0,2,2,0,1,2,3,0,0,3,2,3,0,2,1,0,3,0,2,3,0,1,3,0,2,0,3,0,0,3,3,0,0,0,0,0,3,0,3,2,0,0,0,0,3,0,0,2,3,1,2,0,2,0,0,0,0,0,0,0,0,0,0,0,0,0,0,0,0,0,0,0,0,0,0,0,0,0,0,0,0,0,0,0,0,0,0,0,0,0,0,0,0,0,0,0,0,0,0,0,0,0,0,0,0,0,0,0,0,0,0],"split_type":[0,0,0,0,0,0,0,0,0,0,0,0,0,0,0,0,0,0,0,0,0,0,0,0,0,0,0,0,0,0,0,0,0,0,0,0,0,0,0,0,0,0,0,0,0,0,0,0,0,0,0,0,0,0,0,0,0,0,0,0,0,0,0,0,0,0,0,0,0,0,0,0,0,0,0,0,0,0,0,0,0,0,0,0,0,0,0,0,0,0,0,0,0,0,0,0,0,0,0,0,0,0,0,0,0,0,0,0,0,0,0,0,0,0,0,0,0,0,0],"sum_hessian":[1.77E3,2.42E2,1.528E3,1.73E2,6.9E1,6.01E2,9.27E2,3.1E1,1.42E2,6E0,6.3E1,2.32E2,3.69E2,8.72E2,5.5E1,4E0,2.7E1,1.25E2,1.7E1,3E0,3E0,4.1E1,2.2E1,3.4E1,1.98E2,7.8E1,2.91E2,2.36E2,6.36E2,1E1,4.5E1,2E0,2E0,5E0,2.2E1,3E0,1.22E2,9E0,8E0,2E0,1E0,1E0,2E0,1.4E1,2.7E1,5E0,1.7E1,2E0,3.2E1,6.5E1,1.33E2,1E1,6.8E1,1.35E2,1.56E2,4.4E1,1.92E2,5.95E2,4.1E1,3E0,7E0,3E1,1.5E1,1E0,1E0,1E0,1E0,1E0,4E0,1.5E1,7E0,2E0,1E0,6.8E1,5.4E1,5E0,4E0,6E0,2E0,1E0,1E0,4E0,1E1,1.1E1,1.6E1,3E0,1.4E1,1E0,1E0,2.5E1,7E0,3.6E1,2.9E1,3E0,1.3E2,8E0,2E0,2E0,6.6E1,3E0,1.32E2,1.28E2,2.8E1,7E0,3.7E1,1.23E2,6.9E1,5.69E2,2.6E1,2.8E1,1.3E1,1E0,2E0,3E0,4E0,6E0,2.4E1,1.1E1,4E0],"tree_param":{"num_deleted":"0","num_feature":"4","num_nodes":"119","size_leaf_vector":"1"}},{"base_weights":[6.3056305E-2,2.0207534E0,-2.4811666E-1,2.7626133E0,-6.2691534E-1,1.3990311E-1,-7.340617E-1,4.519793E0,1.4985077E0,-2.5426931E0,1.0717427E-1,9.587565E-1,-4.2852578E-1,-7.814869E-1,1.279962E0,9.571318E-1,8.748607E0,6.915251E0,-5.7368204E-2,-2.9359295E0,4.443924E-1,5.7609134E0,-8.6510026E-1,-4.851348E0,1.1979908E0,-3.4644133E-1,-4.0684447E0,-9.298522E-1,-8.7102994E-2,1.4492478E0,4.276367E-1,-1.7126915E0,1.1530077E1,2.2038107E1,4.1645317E0,1.5146713E1,2.1506379E0,-4.502242E0,2.0919437E0,-1.5735803E0,-1.2220447E0,7.395785E0,-3.6201668E-1,-1.2152886E0,9.826016E-1,-1.1092304E0,-6.8070545E0,1.981288E0,-6.9718844E-1,-4.0390173E-1,4.384745E0,-1.2851604E0,-2.871317E-1,-8.667535E-1,-2.9697678E0,-9.665565E-1,1.009709E0,-5.4213214E-1,8.962776E-1,8.787076E-1,-3.3720634E0,-1.0038836E0,4.8775516E0,-1.0791245E0,8.962895E0,3.1377292E-1,2.162534E0,6.4034647E-1,6.389124E0,-1.1194242E0,9.551018E-1,-1.9847741E0,2.0899684E0,1.9934133E0,-5.398238E-2,-7.756889E-1,2.9251358E-1,1.307233E-1,2.7080579E0,-2.3842633E-1,-1.0233989E0,-5.9226394E-1,1.24146946E-1,-7.710524E-1,-2.904757E0,-5.1667285E-1,7.7576023E-1,-1.031611E0,-5.000859E-2,1.4876221E-1,-2.0104134E-1,1.7769502E0,2.6158026E-1,-2.898033E-1,9.427516E-2,-1.0994954E0,-6.06547E-1,-3.7048113E-1,7.6640195E-1,7.908291E-2,1.7624966E0,-3.3509776E-1,7.8097075E-1],"categories":[],"categories_nodes":[],"categories_segments":[],"categories_sizes":[],"default_left":[0,0,0,0,0,0,0,0,0,0,0,0,0,0,0,0,0,0,0,0,0,0,0,0,0,0,0,0,0,0,0,0,0,0,0,0,0,0,0,0,0,0,0,0,0,0,0,0,0,0,0,0,0,0,0,0,0,0,0,0,0,0,0,0,0,0,0,0,0,0,0,0,0,0,0,0,0,0,0,0,0,0,0,0,0,0,0,0,0,0,0,0,0,0,0,0,0,0,0,0,0,0,0],"id":6,"left_children":[1,3,5,7,9,11,13,15,17,19,21,23,25,27,29,31,33,35,37,39,-1,41,43,45,47,49,51,53,55,-1,57,59,61,63,65,67,69,71,73,75,-1,77,-1,79,-1,81,83,85,87,89,91,-1,-1,93,95,97,99,101,-1,-1,-1,-1,-1,-1,-1,-1,-1,-1,-1,-1,-1,-1,-1,-1,-1,-1,-1,-1,-1,-1,-1,-1,-1,-1,-1,-1,-1,-1,-1,-1,-1,-1,-1,-1,-1,-1,-1,-1,-1,-1,-1,-1,-1],"loss_changes":[1.0793634E3,4.7903235E2,2.8840527E2,4.1526672E2,7.621556E1,3.965172E2,6.5855225E1,1.1818268E3,9.4430804E2,2.8084763E1,2.248632E2,4.9091345E2,1.4887721E2,6.832593E1,4.6358017E1,1.2617749E3,2.1013445E3,9.4791833E2,8.5011945E2,1.52864685E1,0E0,7.727179E1,5.4728157E1,9.490817E1,5.001695E2,1.3579597E2,3.2726898E0,6.783365E1,1.1479818E2,0E0,3.637558E1,1.6249885E3,6.8748145E2,1.915873E3,2.5825955E2,6.7481104E2,1.1517778E2,7.490872E2,6.217975E2,2.315578E1,0E0,5.282831E1,0E0,2.7764671E1,0E0,8.721464E0,8.476135E1,5.373542E2,1.4340791E2,1.1723403E2,2.7260506E1,0E0,0E0,6.2666443E1,3.134491E0,6.552679E1,1.9084033E2,2.2797415E1,0E0,0E0,0E0,0E0,0E0,0E0,0E0,0E0,0E0,0E0,0E0,0E0,0E0,0E0,0E0,0E0,0E0,0E0,0E0,0E0,0E0,0E0,0E0,0E0,0E0,0E0,0E0,0E0,0E0,0E0,0E0,0E0,0E0,0E0,0E0,0E0,0E0,0E0,0E0,0E0,0E0,0E0,0E0,0E0,0E0],"parents":[2147483647,0,0,1,1,2,2,3,3,4,4,5,5,6,6,7,7,8,8,9,9,10,10,11,11,12,12,13,13,14,14,15,15,16,16,17,17,18,18,19,19,21,21,22,22,23,23,24,24,25,25,26,26,27,27,28,28,30,30,31,31,32,32,33,33,34,34,35,35,36,36,37,37,38,38,39,39,41,41,43,43,45,45,46,46,47,47,48,48,49,49,50,50,53,53,54,54,55,55,56,56,57,57],"right_children":[2,4,6,8,10,12,14,16,18,20,22,24,26,28,30,32,34,36,38,40,-1,42,44,46,48,50,52,54,56,-1,58,60,62,64,66,68,70,72,74,76,-1,78,-1,80,-1,82,84,86,88,90,92,-1,-1,94,96,98,100,102,-1,-1,-1,-1,-1,-1,-1,-1,-1,-1,-1,-1,-1,-1,-1,-1,-1,-1,-1,-1,-1,-1,-1,-1,-1,-1,-1,-1,-1,-1,-1,-1,-1,-1,-1,-1,-1,-1,-1,-1,-1,-1,-1,-1,-1],"split_conditions":[2.456667E0,2.1461555E1,1.4279584E1,1.4687474E2,2E-1,1.8720001E1,2.6629583E1,1.5158522E1,1.2413476E1,1.8483335E0,4E-1,9.346143E0,3.37867E2,3.2999997E0,1.2245294E1,1.1977399E2,1.6516901E1,2.0527489E2,2.139844E2,8.233333E-1,4.443924E-1,2.4495447E2,8.2E0,4.7155792E1,2.5264589E2,3.2444482E2,7.9E0,2.6999998E0,1.8752499E1,1.4492478E0,1E-1,8.900019E1,1.1726277E1,4.090103E1,1.909358E1,9.826088E0,2.2734991E2,1.8483335E0,2.4883992E2,4.7958338E-1,-1.2220447E0,-1.9620833E0,-3.6201668E-1,1.7400001E0,9.826016E-1,1.1665E1,8.854829E0,4.5680347E1,2.6197214E2,5.1316667E0,1.1021251E1,-1.2851604E0,-2.871317E-1,1.3000002E0,1.9600967E2,2.7600002E1,3.1094247E2,2.266857E1,8.962776E-1,8.787076E-1,-3.3720634E0,-1.0038836E0,4.8775516E0,-1.0791245E0,8.962895E0,3.1377292E-1,2.162534E0,6.4034647E-1,6.389124E0,-1.1194242E0,9.551018E-1,-1.9847741E0,2.0899684E0,1.9934133E0,-5.398238E-2,-7.756889E-1,2.9251358E-1,1.307233E-1,2.7080579E0,-2.3842633E-1,-1.0233989E0,-5.9226394E-1,1.24146946E-1,-7.710524E-1,-2.904757E0,-5.1667285E-1,7.7576023E-1,-1.031611E0,-5.000859E-2,1.4876221E-1,-2.0104134E-1,1.7769502E0,2.6158026E-1,-2.898033E-1,9.427516E-2,-1.0994954E0,-6.06547E-1,-3.7048113E-1,7.6640195E-1,7.908291E-2,1.7624966E0,-3.3509776E-1,7.8097075E-1],"split_indices":[0,2,0,3,1,2,0,2,2,0,1,2,3,1,2,3,2,3,3,0,0,3,1,3,3,3,1,1,0,0,1,3,2,3,2,2,3,0,3,0,0,0,0,0,0,0,2,3,3,0,0,0,0,1,3,1,3,2,0,0,0,0,0,0,0,0,0,0,0,0,0,0,0,0,0,0,0,0,0,0,0,0,0,0,0,0,0,0,0,0,0,0,0,0,0,0,0,0,0,0,0,0,0],"split_type":[0,0,0,0,0,0,0,0,0,0,0,0,0,0,0,0,0,0,0,0,0,0,0,0,0,0,0,0,0,0,0,0,0,0,0,0,0,0,0,0,0,0,0,0,0,0,0,0,0,0,0,0,0,0,0,0,0,0,0,0,0,0,0,0,0,0,0,0,0,0,0,0,0,0,0,0,0,0,0,0,0,0,0,0,0,0,0,0,0,0,0,0,0,0,0,0,0,0,0,0,0,0,0],"sum_hessian":[1.77E3,2.42E2,1.528E3,1.89E2,5.3E1,8.5E2,6.78E2,7.8E1,1.11E2,1.4E1,3.9E1,3.48E2,5.02E2,6.63E2,1.5E1,4.3E1,3.5E1,2.4E1,8.7E1,1.3E1,1E0,5E0,3.4E1,1.3E1,3.35E2,4.92E2,1E1,5.46E2,1.17E2,2E0,1.3E1,3.5E1,8E0,8E0,2.7E1,8E0,1.6E1,2.8E1,5.9E1,7E0,6E0,4E0,1E0,3.2E1,2E0,5E0,8E0,2.37E2,9.8E1,4.87E2,5E0,9E0,1E0,5.31E2,1.5E1,6.5E1,5.2E1,1E1,3E0,2.4E1,1.1E1,2E0,6E0,2E0,6E0,1.4E1,1.3E1,3E0,5E0,2E0,1.4E1,2.4E1,4E0,1.9E1,4E1,5E0,2E0,1E0,3E0,2.8E1,4E0,3E0,2E0,4E0,4E0,3.3E1,2.04E2,1.5E1,8.3E1,1.11E2,3.76E2,3E0,2E0,4.9E2,4.1E1,7E0,8E0,6.1E1,4E0,4.6E1,6E0,9E0,1E0],"tree_param":{"num_deleted":"0","num_feature":"4","num_nodes":"103","size_leaf_vector":"1"}},{"base_weights":[5.552379E-2,1.5033622E0,-1.7461371E-1,2.0953164E0,-4.208935E-1,-6.404888E0,-1.4175116E-1,1.870839E0,1.1841322E1,-1.7764944E0,-2.205005E-1,-3.795796E0,-2.2135246E0,6.436808E-1,-3.0108312E-1,1.1132168E0,4.0394225E0,4.264184E0,7.085175E-1,6.183844E-1,-1.3190086E0,-2.9303784E0,2.0561172E-1,4.720812E0,-1.2961893E-1,-3.0077055E0,-2.5522426E-1,4.5640454E0,3.021921E-1,9.032671E0,6.2869364E-1,1.4797437E-1,2.350726E0,-1.7833483E0,4.4862536E-1,-1.1454195E0,-1.1215634E0,-1.1093264E-1,1.090087E1,-8.183685E0,6.00522E-2,-3.994222E0,2.5083942E0,5.0328655E0,-2.8916252E-1,1.7189735E-1,4.0416884E0,-1.5294118E0,3.9666387E-1,-1.6698672E-1,6.686258E0,1.20356E0,-4.9850473E-1,4.3256196E-1,-2.8154862E-1,-7.420752E-1,-2.981216E-1,3.8611487E-1,-5.6152433E-1,-7.2014755E-1,2.0470877E-1,1.6560442E0,-5.64999E-1,6.1329894E0,1.6974436E0,-2.9582426E-1,-3.7960186E0,1.3011795E-1,-7.590638E-1,-2.0877562E0,-6.679315E-1,3.983017E0,2.1637775E-2,-7.022952E-1,-6.827167E-2],"categories":[],"categories_nodes":[],"categories_segments":[],"categories_sizes":[],"default_left":[0,0,0,0,0,0,0,0,0,0,0,0,0,0,0,0,0,0,0,0,0,0,0,0,0,0,0,0,0,0,0,0,0,0,0,0,0,0,0,0,0,0,0,0,0,0,0,0,0,0,0,0,0,0,0,0,0,0,0,0,0,0,0,0,0,0,0,0,0,0,0,0,0,0,0],"id":7,"left_children":[1,3,5,7,9,11,13,15,17,-1,19,-1,21,23,25,27,29,-1,-1,31,33,35,-1,37,39,41,43,45,47,49,51,53,-1,55,57,59,-1,61,63,65,67,69,-1,71,73,-1,-1,-1,-1,-1,-1,-1,-1,-1,-1,-1,-1,-1,-1,-1,-1,-1,-1,-1,-1,-1,-1,-1,-1,-1,-1,-1,-1,-1,-1],"loss_changes":[5.9036316E2,2.7767615E2,3.1214377E2,3.8476947E2,6.262841E1,1.814863E2,1.9066362E2,2.9616626E2,5.6396667E1,0E0,5.33424E1,0E0,1.4476917E1,8.108929E2,1.5637164E2,3.8204364E2,7.9476013E2,0E0,0E0,1.1087954E2,2.1319618E1,2.9305115E0,0E0,1.2254883E3,3.319858E2,2.6892725E2,2.2507309E2,9.1666626E2,6.236757E2,2.427395E3,2.3137984E2,4.633821E1,0E0,8.442238E0,1.4081772E1,8.520001E0,0E0,2.4992853E2,7.8483887E2,1.4837872E2,2.0726338E2,8.933411E1,0E0,3.262074E2,1.5604254E2,0E0,0E0,0E0,0E0,0E0,0E0,0E0,0E0,0E0,0E0,0E0,0E0,0E0,0E0,0E0,0E0,0E0,0E0,0E0,0E0,0E0,0E0,0E0,0E0,0E0,0E0,0E0,0E0,0E0,0E0],"parents":[2147483647,0,0,1,1,2,2,3,3,4,4,5,5,6,6,7,7,8,8,10,10,12,12,13,13,14,14,15,15,16,16,19,19,20,20,21,21,23,23,24,24,25,25,26,26,27,27,28,28,29,29,30,30,31,31,33,33,34,34,35,35,37,37,38,38,39,39,40,40,41,41,43,43,44,44],"right_children":[2,4,6,8,10,12,14,16,18,-1,20,-1,22,24,26,28,30,-1,-1,32,34,36,-1,38,40,42,44,46,48,50,52,54,-1,56,58,60,-1,62,64,66,68,70,-1,72,74,-1,-1,-1,-1,-1,-1,-1,-1,-1,-1,-1,-1,-1,-1,-1,-1,-1,-1,-1,-1,-1,-1,-1,-1,-1,-1,-1,-1,-1,-1],"split_conditions":[2.456667E0,2.1194187E1,2.5962498E0,2.1120682E1,2.1313093E1,1.3909988E2,5.956667E0,9.000001E-1,3E-1,-1.7764944E0,2.5982424E1,-3.795796E0,9E-1,1.2445713E2,6.1920834E0,8.828102E1,1.4219795E2,4.264184E0,7.085175E-1,2.5812277E1,3.8999999E0,1E-1,2.0561172E-1,8.828102E1,1.2972067E2,3.0903435E1,6.2274995E0,4.9407036E1,1.1977399E2,8.828102E1,1.5000001E0,1.783036E2,2.350726E0,2.1528589E2,1.3941668E0,1.1928989E1,-1.1215634E0,1.4205182E1,1.5042659E1,1.2770117E2,2.9568356E2,1.9161337E1,2.5083942E0,1.4799459E1,1.0163227E1,1.7189735E-1,4.0416884E0,-1.5294118E0,3.9666387E-1,-1.6698672E-1,6.686258E0,1.20356E0,-4.9850473E-1,4.3256196E-1,-2.8154862E-1,-7.420752E-1,-2.981216E-1,3.8611487E-1,-5.6152433E-1,-7.2014755E-1,2.0470877E-1,1.6560442E0,-5.64999E-1,6.1329894E0,1.6974436E0,-2.9582426E-1,-3.7960186E0,1.3011795E-1,-7.590638E-1,-2.0877562E0,-6.679315E-1,3.983017E0,2.1637775E-2,-7.022952E-1,-6.827167E-2],"split_indices":[0,2,0,2,2,3,0,1,1,0,2,0,1,3,0,3,3,0,0,2,1,1,0,3,3,2,0,3,3,3,1,3,0,3,0,2,0,2,2,3,3,2,0,2,2,0,0,0,0,0,0,0,0,0,0,0,0,0,0,0,0,0,0,0,0,0,0,0,0,0,0,0,0,0,0],"split_type":[0,0,0,0,0,0,0,0,0,0,0,0,0,0,0,0,0,0,0,0,0,0,0,0,0,0,0,0,0,0,0,0,0,0,0,0,0,0,0,0,0,0,0,0,0,0,0,0,0,0,0,0,0,0,0,0,0,0,0,0,0,0,0,0,0,0,0,0,0,0,0,0,0,0,0],"sum_hessian":[1.77E3,2.42E2,1.528E3,1.85E2,5.7E1,7E0,1.521E3,1.82E2,3E0,1E0,5.6E1,2E0,5E0,2.56E2,1.265E3,1.36E2,4.6E1,2E0,1E0,3.2E1,2.4E1,4E0,1E0,4E1,2.16E2,2E1,1.245E3,2.5E1,1.11E2,1.8E1,2.8E1,3.1E1,1E0,1.9E1,5E0,2E0,2E0,2.3E1,1.7E1,4E0,2.12E2,1.9E1,1E0,7E0,1.238E3,1.8E1,7E0,1.7E1,9.4E1,1.1E1,7E0,1.1E1,1.7E1,1.4E1,1.7E1,9E0,1E1,4E0,1E0,1E0,1E0,5E0,1.8E1,5E0,1.2E1,2E0,2E0,1.86E2,2.6E1,6E0,1.3E1,2E0,5E0,3.5E1,1.203E3],"tree_param":{"num_deleted":"0","num_feature":"4","num_nodes":"75","size_leaf_vector":"1"}},{"base_weights":[4.832333E-2,1.7180573E0,-7.191058E-2,-2.530867E0,2.263028E0,6.729411E-1,-2.422987E-1,3.3345962E0,-5.210512E0,9.494613E0,1.5758106E0,2.8629029E0,1.7492224E-1,-2.6214972E0,-1.5988225E-1,2.2918167E0,3.485508E-1,-1.10603E1,5.327301E-1,1.1624959E1,1.358935E0,-1.2064734E0,3.4353962E0,1.7383981E0,1.4210072E1,-2.7426853E0,3.3223048E-1,-3.659867E0,-1.389502E0,4.9480027E-1,-3.546932E-1,1.9608328E-1,-8.499441E-2,1.139986E0,-4.7176056E0,-2.5974798E0,1.3586301E0,3.7581673E0,9.317056E-1,7.313547E-1,-1.1983395E-1,-2.3906052E0,2.1326566E0,5.175844E0,-8.165051E-1,-4.0828524E0,2.7129982E0,1.1783689E0,6.7515254E0,3.3022113E0,-5.7962184E0,-1.5272517E0,7.2301453E-1,-4.8656067E-1,-7.7933683E0,2.2611115E0,-2.1733794E-1,-4.3569293E0,-3.181723E-1,-1.3002316E0,3.9185944E-1,-1.6483642E0,-1.6917211E-1,1.6025172E0,-4.295561E-1,-6.1571175E-1,2.0810895E0,-1.2579153E0,1.3431779E-1,-5.1797426E-1,-1.8022437E0,1.2700262E0,-7.5286955E-1,8.372E-1,-3.06934E-1,1.839535E0,-1.2024114E0,-2.3514276E0,-3.8530615E-1,-2.3228743E0,-2.007632E-1,1.2254653E0,1.6309058E-2,6.698228E-1,-5.1687294E-1,-3.4656222E0,-4.3106207E-1,3.6632986E0,4.086699E-1,-2.6406196E-1,1.4374971E-1,-1.6721288E0,8.066607E-1,-4.7178727E-2,-2.2775276E-1],"categories":[],"categories_nodes":[],"categories_segments":[],"categories_sizes":[],"default_left":[0,0,0,0,0,0,0,0,0,0,0,0,0,0,0,0,0,0,0,0,0,0,0,0,0,0,0,0,0,0,0,0,0,0,0,0,0,0,0,0,0,0,0,0,0,0,0,0,0,0,0,0,0,0,0,0,0,0,0,0,0,0,0,0,0,0,0,0,0,0,0,0,0,0,0,0,0,0,0,0,0,0,0,0,0,0,0,0,0,0,0,0,0,0,0],"id":8,"left_children":[1,3,5,7,9,11,13,15,17,19,21,23,25,27,29,-1,31,33,35,37,39,41,43,45,47,49,51,-1,53,55,57,-1,-1,-1,-1,59,-1,-1,-1,-1,-1,61,63,65,67,69,71,73,-1,75,77,79,81,83,85,87,89,91,93,-1,-1,-1,-1,-1,-1,-1,-1,-1,-1,-1,-1,-1,-1,-1,-1,-1,-1,-1,-1,-1,-1,-1,-1,-1,-1,-1,-1,-1,-1,-1,-1,-1,-1,-1,-1],"loss_changes":[3.5566714E2,2.8127652E2,2.0995169E2,2.3741798E2,5.1182336E2,3.3541702E2,2.635114E2,6.1608818E1,3.4185965E2,1.4018866E2,5.1118646E2,7.0261414E2,1.1657005E2,5.1405414E2,1.6623169E2,0E0,9.5620525E-1,4.0637482E2,8.681398E1,1.4900879E1,6.6652174E0,1.6325713E2,4.4083868E2,3.1176654E2,5.139714E2,2.590981E2,1.7550165E2,0E0,2.3328299E2,3.765909E2,1.4536368E2,0E0,0E0,0E0,0E0,3.2778107E1,0E0,0E0,0E0,0E0,0E0,1.6700058E2,1.3347485E2,5.488872E2,7.871455E1,2.590715E1,3.758871E2,1.3503502E1,0E0,1.280008E2,7.2846985E1,2.1881674E2,4.471135E2,1.2824112E2,1.0286209E2,7.5252734E2,9.92235E1,9.214917E1,7.055859E1,0E0,0E0,0E0,0E0,0E0,0E0,0E0,0E0,0E0,0E0,0E0,0E0,0E0,0E0,0E0,0E0,0E0,0E0,0E0,0E0,0E0,0E0,0E0,0E0,0E0,0E0,0E0,0E0,0E0,0E0,0E0,0E0,0E0,0E0,0E0,0E0],"parents":[2147483647,0,0,1,1,2,2,3,3,4,4,5,5,6,6,7,7,8,8,9,9,10,10,11,11,12,12,13,13,14,14,16,16,17,17,18,18,19,19,20,20,21,21,22,22,23,23,24,24,25,25,26,26,28,28,29,29,30,30,35,35,41,41,42,42,43,43,44,44,45,45,46,46,47,47,49,49,50,50,51,51,52,52,53,53,54,54,55,55,56,56,57,57,58,58],"right_children":[2,4,6,8,10,12,14,16,18,20,22,24,26,28,30,-1,32,34,36,38,40,42,44,46,48,50,52,-1,54,56,58,-1,-1,-1,-1,60,-1,-1,-1,-1,-1,62,64,66,68,70,72,74,-1,76,78,80,82,84,86,88,90,92,94,-1,-1,-1,-1,-1,-1,-1,-1,-1,-1,-1,-1,-1,-1,-1,-1,-1,-1,-1,-1,-1,-1,-1,-1,-1,-1,-1,-1,-1,-1,-1,-1,-1,-1,-1,-1],"split_conditions":[3.6291683E-1,9.693296E0,1.4332341E1,7.062193E1,1.0495713E1,5.29625E0,1.4764389E1,-6.2099996E0,1.1977399E2,2.7477353E2,-1.6974999E0,4.9275002E0,6.617082E0,1.5837501E0,1.3299855E2,2.2918167E0,8.854829E0,8.287822E0,9.028754E0,1.0296251E1,-1.6974999E0,1.8581022E1,2.47023E2,8.385739E1,9.585739E0,1.0587918E1,6.3177135E1,-3.659867E0,1.4658676E1,8.156667E0,1.4098901E2,1.9608328E-1,-8.499441E-2,1.139986E0,-4.7176056E0,2.9841754E2,1.3586301E0,3.7581673E0,9.317056E-1,7.313547E-1,-1.1983395E-1,1.3909988E2,3E-1,6.7557205E1,1.405845E1,2.6118853E1,4.056667E0,5.0629168E0,6.7515254E0,6.2274995E0,1.24811535E1,7.8774986E0,9.037916E0,1.4417988E1,7.754583E0,1.5192682E1,1.8402502E1,2.1461555E1,1.6215E1,-1.3002316E0,3.9185944E-1,-1.6483642E0,-1.6917211E-1,1.6025172E0,-4.295561E-1,-6.1571175E-1,2.0810895E0,-1.2579153E0,1.3431779E-1,-5.1797426E-1,-1.8022437E0,1.2700262E0,-7.5286955E-1,8.372E-1,-3.06934E-1,1.839535E0,-1.2024114E0,-2.3514276E0,-3.8530615E-1,-2.3228743E0,-2.007632E-1,1.2254653E0,1.6309058E-2,6.698228E-1,-5.1687294E-1,-3.4656222E0,-4.3106207E-1,3.6632986E0,4.086699E-1,-2.6406196E-1,1.4374971E-1,-1.6721288E0,8.066607E-1,-4.7178727E-2,-2.2775276E-1],"split_indices":[0,2,2,3,2,0,2,0,3,3,0,0,0,0,3,0,2,2,2,2,0,2,3,3,2,2,3,0,2,0,3,0,0,0,0,3,0,0,0,0,0,3,1,3,2,3,0,0,0,0,2,0,0,2,0,2,0,2,0,0,0,0,0,0,0,0,0,0,0,0,0,0,0,0,0,0,0,0,0,0,0,0,0,0,0,0,0,0,0,0,0,0,0,0,0],"split_type":[0,0,0,0,0,0,0,0,0,0,0,0,0,0,0,0,0,0,0,0,0,0,0,0,0,0,0,0,0,0,0,0,0,0,0,0,0,0,0,0,0,0,0,0,0,0,0,0,0,0,0,0,0,0,0,0,0,0,0,0,0,0,0,0,0,0,0,0,0,0,0,0,0,0,0,0,0,0,0,0,0,0,0,0,0,0,0,0,0,0,0,0,0,0,0],"sum_hessian":[1.77E3,1.18E2,1.652E3,1.3E1,1.05E2,3.07E2,1.345E3,4E0,9E0,8E0,9.7E1,5.6E1,2.51E2,4.4E1,1.301E3,1E0,3E0,4E0,5E0,6E0,2E0,3.9E1,5.8E1,5.2E1,4E0,1.2E1,2.39E2,4E0,4E1,2.98E2,1.003E3,2E0,1E0,1E0,3E0,3E0,2E0,5E0,1E0,1E0,1E0,2.9E1,1E1,4.1E1,1.7E1,7E0,4.5E1,2E0,2E0,4E0,8E0,4.1E1,1.98E2,3.6E1,4E0,8.5E1,2.13E2,8E0,9.95E2,2E0,1E0,1E1,1.9E1,5E0,5E0,8E0,3.3E1,4E0,1.3E1,4E0,3E0,3.5E1,1E1,1E0,1E0,3E0,1E0,5E0,3E0,4E0,3.7E1,3.2E1,1.66E2,1.1E1,2.5E1,2E0,2E0,6E0,7.9E1,1.09E2,1.04E2,7E0,1E0,7.3E2,2.65E2],"tree_param":{"num_deleted":"0","num_feature":"4","num_nodes":"95","size_leaf_vector":"1"}},{"base_weights":[3.483077E-2,1.2884554E0,-4.977211E-2,7.496063E-1,8.199792E0,-1.1108428E0,3.2887373E-2,2.4945226E0,-7.6356035E-1,-1.6877484E-1,1.3254687E1,-5.6036997E-1,-3.0794616E0,8.3551E0,-5.085511E-3,6.022364E-1,8.278885E0,-8.155168E0,-3.4649885E-1,7.919498E-1,-1.9849215E0,1.5283777E1,7.7074933E-1,-1.2711793E0,2.3497715E0,4.173094E-1,-3.3139224E0,1.1880616E1,-9.1738276E-2,5.98255E-1,-1.6637036E-1,2.9913337E0,-4.8234186E0,-1.7443248E0,1.0088677E1,-3.6836433E0,1.3817597E-2,2.8580048E0,-1.510427E0,-1.8635732E-1,-7.068574E-1,1.2115345E0,5.305821E0,5.9253687E-1,-2.2894368E0,6.787041E0,7.140302E-1,-3.396234E0,-2.0076664E-1,5.355549E-2,5.924242E0,-5.34192E0,7.65544E-1,6.6817017E0,-1.945773E-1,-3.0602044E-1,2.67565E0,-2.3563082E0,-1.4502516E-1,5.4361706E0,8.731119E-1,2.007378E0,8.1675366E-2,-2.6521573E0,-1.4371534E-1,3.3079807E-3,1.2236527E0,-8.980702E-1,-1.8181846E-1,3.526712E0,-1.3319121E-1,6.7059714E-1,-1.6456045E-1,-7.0504E-1,-1.1317204E0,3.7947465E-2,-1.38474945E-2,-3.1749356E0,-6.997681E-1,7.444569E-1,-1.5632682E-2,2.5663362E0,-1.2139607E-1,-8.7971324E-1,-4.521031E-2],"categories":[],"categories_nodes":[],"categories_segments":[],"categories_sizes":[],"default_left":[0,0,0,0,0,0,0,0,0,0,0,0,0,0,0,0,0,0,0,0,0,0,0,0,0,0,0,0,0,0,0,0,0,0,0,0,0,0,0,0,0,0,0,0,0,0,0,0,0,0,0,0,0,0,0,0,0,0,0,0,0,0,0,0,0,0,0,0,0,0,0,0,0,0,0,0,0,0,0,0,0,0,0,0,0],"id":9,"left_children":[1,3,5,7,9,11,13,15,17,19,21,23,25,27,29,31,33,35,37,-1,39,41,-1,43,45,-1,47,49,-1,51,53,55,57,-1,59,-1,-1,61,63,-1,-1,-1,-1,65,67,69,71,73,-1,75,-1,77,79,81,83,-1,-1,-1,-1,-1,-1,-1,-1,-1,-1,-1,-1,-1,-1,-1,-1,-1,-1,-1,-1,-1,-1,-1,-1,-1,-1,-1,-1,-1,-1],"loss_changes":[1.8789684E2,4.1096008E2,1.4563109E2,2.7914136E2,3.4065497E2,1.2831491E2,4.8702686E2,5.313519E2,1.7289127E2,2.5643232E1,6.914282E1,1.9949977E2,3.1861847E1,2.1737189E2,1.494699E2,5.070003E2,3.647312E2,1.0202232E2,2.0945648E2,0E0,5.5290222E-2,3.6633972E1,0E0,1.474828E2,1.3306015E2,0E0,3.1693726E0,4.6415125E2,0E0,3.2605664E2,2.3541391E2,6.5109247E2,1.540546E2,0E0,5.814713E2,0E0,0E0,1.468561E2,3.057284E2,0E0,0E0,0E0,0E0,5.6720043E1,5.7451477E1,1.8486156E2,3.0037136E1,5.7858276E-1,0E0,2.765683E-2,0E0,1.172681E2,4.4350104E2,6.981653E1,1.4466846E2,0E0,0E0,0E0,0E0,0E0,0E0,0E0,0E0,0E0,0E0,0E0,0E0,0E0,0E0,0E0,0E0,0E0,0E0,0E0,0E0,0E0,0E0,0E0,0E0,0E0,0E0,0E0,0E0,0E0,0E0],"parents":[2147483647,0,0,1,1,2,2,3,3,4,4,5,5,6,6,7,7,8,8,9,9,10,10,11,11,12,12,13,13,14,14,15,15,16,16,17,17,18,18,20,20,21,21,23,23,24,24,26,26,27,27,29,29,30,30,31,31,32,32,34,34,37,37,38,38,43,43,44,44,45,45,46,46,47,47,49,49,51,51,52,52,53,53,54,54],"right_children":[2,4,6,8,10,12,14,16,18,20,22,24,26,28,30,32,34,36,38,-1,40,42,-1,44,46,-1,48,50,-1,52,54,56,58,-1,60,-1,-1,62,64,-1,-1,-1,-1,66,68,70,72,74,-1,76,-1,78,80,82,84,-1,-1,-1,-1,-1,-1,-1,-1,-1,-1,-1,-1,-1,-1,-1,-1,-1,-1,-1,-1,-1,-1,-1,-1,-1,-1,-1,-1,-1,-1],"split_conditions":[2.5041667E-1,1.5041667E-1,4.5680347E1,1.4687474E2,3.8942314E1,2.1924562E1,4.7155792E1,1.1977399E2,1.5113388E2,1.0495713E1,1.4764389E1,1.7906157E1,8.9625E-1,1.7447933E1,1.4424823E2,-3.8916662E-1,1.0739833E1,-2.9641669E0,1.3358861E1,7.919498E-1,1E-1,9.346143E0,7.7074933E-1,1.3217443E1,1E-1,4.173094E-1,1.6671247E1,1.2245294E1,-9.1738276E-2,6.025E-1,3.6291683E-1,-1.9620833E0,1.337825E1,-1.7443248E0,1.4587776E1,-3.6836433E0,1.3817597E-2,2.7477353E2,1.3570615E1,-1.8635732E-1,-7.068574E-1,1.2115345E0,5.305821E0,3.7000003E0,1.81025E1,2.000512E1,1.9469976E1,2.3000591E1,-2.0076664E-1,5.89E0,5.924242E0,1E-1,9.742082E0,2.47023E2,1.487817E2,-3.0602044E-1,2.67565E0,-2.3563082E0,-1.4502516E-1,5.4361706E0,8.731119E-1,2.007378E0,8.1675366E-2,-2.6521573E0,-1.4371534E-1,3.3079807E-3,1.2236527E0,-8.980702E-1,-1.8181846E-1,3.526712E0,-1.3319121E-1,6.7059714E-1,-1.6456045E-1,-7.0504E-1,-1.1317204E0,3.7947465E-2,-1.38474945E-2,-3.1749356E0,-6.997681E-1,7.444569E-1,-1.5632682E-2,2.5663362E0,-1.2139607E-1,-8.7971324E-1,-4.521031E-2],"split_indices":[0,0,3,3,3,2,3,3,3,2,2,2,0,2,3,0,2,0,2,0,1,2,0,2,1,0,0,2,0,0,0,0,2,0,2,0,0,3,2,0,0,0,0,1,0,2,2,2,0,0,0,1,0,3,3,0,0,0,0,0,0,0,0,0,0,0,0,0,0,0,0,0,0,0,0,0,0,0,0,0,0,0,0,0,0],"split_type":[0,0,0,0,0,0,0,0,0,0,0,0,0,0,0,0,0,0,0,0,0,0,0,0,0,0,0,0,0,0,0,0,0,0,0,0,0,0,0,0,0,0,0,0,0,0,0,0,0,0,0,0,0,0,0,0,0,0,0,0,0,0,0,0,0,0,0,0,0,0,0,0,0,0,0,0,0,0,0,0,0,0,0,0,0],"sum_hessian":[1.77E3,1.11E2,1.659E3,1.04E2,7E0,1.19E2,1.54E3,4.8E1,5.6E1,3E0,4E0,9.4E1,2.5E1,6E0,1.534E3,3.7E1,1.1E1,2E0,5.4E1,1E0,2E0,3E0,1E0,7.6E1,1.8E1,1E0,2.4E1,4E0,2E0,3.23E2,1.211E3,2.6E1,1.1E1,1E0,1E1,1E0,1E0,1.4E1,4E1,1E0,1E0,1E0,2E0,2.7E1,4.9E1,4E0,1.4E1,2.3E1,1E0,2E0,2E0,8E0,3.15E2,4E0,1.207E3,1.6E1,1E1,6E0,5E0,4E0,6E0,5E0,9E0,4E0,3.6E1,2.4E1,3E0,3.4E1,1.5E1,2E0,2E0,6E0,8E0,8E0,1.5E1,1E0,1E0,2E0,6E0,1.01E2,2.14E2,3E0,1E0,1.8E1,1.189E3],"tree_param":{"num_deleted":"0","num_feature":"4","num_nodes":"85","size_leaf_vector":"1"}},{"base_weights":[3.2230403E-2,7.035048E-2,-2.18235E0,2.3897383E-1,-4.462962E-1,-2.9619834E0,-9.3498445E-1,5.641053E-1,-2.1087083E-1,-5.10641E-1,2.0452285E0,-1.0682389E0,-3.4267507E0,3.9984572E-1,-1.2350364E0,4.9980313E-1,7.437336E0,-2.5625157E-1,1.3253996E0,-1.6058779E0,-3.013166E-1,5.4731812E0,-6.954847E-1,-5.0334996E-1,2.0552073E-1,-1.0732636E0,-2.1996303E-1,-1.4481844E0,1.6643894E-1,4.5677418E-1,6.880001E0,1.2964391E1,5.094707E-2,-2.0065297E-1,-1.3868847E0,1.2392775E0,6.295443E-1,-1.1057824E0,-1.1314735E0,1.5661291E0,-6.0034454E-1,4.3490368E-1,1.8349912E0,-1.5285157E0,2.7741858E-1,1.0299025E-1,-1.661663E0,1.6273525E-1,-3.5087264E-1,5.271329E-1,2.3164341E0,-8.2516195E-3,5.1912575E0,7.5952804E-1,-4.859732E-1,-6.728848E-2,8.591574E-1,-8.040617E-1,7.126901E-2,-1.8257957E-2,7.1123093E-1,-1.7382662E-1,-7.8053594E-1,7.056666E-1,-3.1610277E-1,-2.1456815E-1,2.9620928E-1,-6.298237E-2,-7.012755E-1,-5.74651E-1,-2.4060807E-1],"categories":[],"categories_nodes":[],"categories_segments":[],"categories_sizes":[],"default_left":[0,0,0,0,0,0,0,0,0,0,0,0,0,0,0,0,0,0,0,0,0,0,0,0,0,0,0,0,0,0,0,0,0,0,0,0,0,0,0,0,0,0,0,0,0,0,0,0,0,0,0,0,0,0,0,0,0,0,0,0,0,0,0,0,0,0,0,0,0,0,0],"id":10,"left_children":[1,3,5,7,9,11,13,15,17,19,21,23,25,-1,27,29,31,33,35,37,39,41,43,-1,-1,-1,-1,45,-1,47,49,51,53,55,57,-1,59,-1,61,63,65,-1,-1,67,-1,-1,69,-1,-1,-1,-1,-1,-1,-1,-1,-1,-1,-1,-1,-1,-1,-1,-1,-1,-1,-1,-1,-1,-1,-1,-1],"loss_changes":[1.4966133E2,1.518674E2,2.6405228E1,1.923028E2,6.982024E1,1.2182129E1,1.0492042E1,3.3350092E2,3.8823467E1,9.557599E1,1.071519E2,6.493464E0,3.0632935E0,0E0,5.381441E0,2.04679E2,2.8511432E2,3.3478405E1,2.8635233E1,6.1944427E1,1.980619E2,4.0775757E0,1.0861278E1,0E0,0E0,0E0,0E0,4.7773323E0,0E0,1.0555765E2,7.985733E0,2.2600494E2,2.0681566E1,3.7809708E1,5.316003E1,0E0,1.6974375E1,0E0,4.394703E1,1.0338958E2,5.6338203E1,0E0,0E0,4.8433332E0,0E0,0E0,6.458168E-1,0E0,0E0,0E0,0E0,0E0,0E0,0E0,0E0,0E0,0E0,0E0,0E0,0E0,0E0,0E0,0E0,0E0,0E0,0E0,0E0,0E0,0E0,0E0,0E0],"parents":[2147483647,0,0,1,1,2,2,3,3,4,4,5,5,6,6,7,7,8,8,9,9,10,10,11,11,12,12,14,14,15,15,16,16,17,17,18,18,19,19,20,20,21,21,22,22,27,27,29,29,30,30,31,31,32,32,33,33,34,34,36,36,38,38,39,39,40,40,43,43,46,46],"right_children":[2,4,6,8,10,12,14,16,18,20,22,24,26,-1,28,30,32,34,36,38,40,42,44,-1,-1,-1,-1,46,-1,48,50,52,54,56,58,-1,60,-1,62,64,66,-1,-1,68,-1,-1,70,-1,-1,-1,-1,-1,-1,-1,-1,-1,-1,-1,-1,-1,-1,-1,-1,-1,-1,-1,-1,-1,-1,-1,-1],"split_conditions":[3.4957156E2,2.4063513E1,1.4775414E1,1.4279584E1,2.2552504E1,4.7958338E-1,1.4879582E1,1.42275E1,2.6629583E1,1E-1,1.8718695E2,7E-1,7.9E0,3.9984572E-1,5E0,2.3990698E1,4E-1,2.4756666E1,1.2245294E1,2.466197E1,4E-1,2.3240004E1,1.2E0,-5.0334996E-1,2.0552073E-1,-1.0732636E0,-2.1996303E-1,9.585739E0,1.6643894E-1,3.1673563E2,1E-1,1.0587918E1,1.7114204E1,2.3933908E1,1.1301274E2,1.2392775E0,1E-1,-1.1057824E0,1.790875E1,1.5348332E1,2.9316473E2,4.3490368E-1,1.8349912E0,1E-1,2.7741858E-1,1.0299025E-1,1.9523335E1,1.6273525E-1,-3.5087264E-1,5.271329E-1,2.3164341E0,-8.2516195E-3,5.1912575E0,7.5952804E-1,-4.859732E-1,-6.728848E-2,8.591574E-1,-8.040617E-1,7.126901E-2,-1.8257957E-2,7.1123093E-1,-1.7382662E-1,-7.8053594E-1,7.056666E-1,-3.1610277E-1,-2.1456815E-1,2.9620928E-1,-6.298237E-2,-7.012755E-1,-5.74651E-1,-2.4060807E-1],"split_indices":[3,2,0,0,0,0,0,0,0,1,3,1,1,0,1,2,1,0,2,2,1,0,1,0,0,0,0,2,0,3,1,2,2,2,3,0,1,0,0,0,3,0,0,1,0,0,0,0,0,0,0,0,0,0,0,0,0,0,0,0,0,0,0,0,0,0,0,0,0,0,0],"split_type":[0,0,0,0,0,0,0,0,0,0,0,0,0,0,0,0,0,0,0,0,0,0,0,0,0,0,0,0,0,0,0,0,0,0,0,0,0,0,0,0,0,0,0,0,0,0,0,0,0,0,0,0,0,0,0,0,0,0,0,0,0,0,0,0,0,0,0,0,0,0,0],"sum_hessian":[1.77E3,1.741E3,2.9E1,1.313E3,4.28E2,1.7E1,1.2E1,7.62E2,5.51E2,4.18E2,1E1,4E0,1.3E1,1E0,1.1E1,7.56E2,6E0,5.36E2,1.5E1,6.6E1,3.52E2,4E0,6E0,3E0,1E0,1.2E1,1E0,1E1,1E0,7.52E2,4E0,3E0,3E0,5.12E2,2.4E1,2E0,1.3E1,1.1E1,5.5E1,4.8E1,3.04E2,1E0,3E0,4E0,2E0,1E0,9E0,7.15E2,3.7E1,1E0,3E0,1E0,2E0,1E0,2E0,5.09E2,3E0,1.3E1,1.1E1,1E1,3E0,4.1E1,1.4E1,3.7E1,1.1E1,2.84E2,2E1,2E0,2E0,6E0,3E0],"tree_param":{"num_deleted":"0","num_feature":"4","num_nodes":"71","size_leaf_vector":"1"}},{"base_weights":[2.7394991E-2,2.3706643E-1,-2.2855411E-1,1.8243614E-1,2.5927756E0,-1.7385846E0,-1.5493247E-1,4.6576396E-1,-2.0208092E-1,5.527493E0,5.209734E-1,-1.9681853E0,9.790555E-1,-1.4049964E0,-6.5173775E-2,5.919832E-1,-1.1999747E0,7.691907E-1,-2.8746933E-1,-5.60591E-1,6.685589E0,-2.5016239E0,3.9009457E0,9.0458083E-1,-2.1967204E0,-2.930172E0,-4.078556E-1,1.2533756E0,-1.8402582E-1,3.2376817E-1,1.3518443E0,-1.8712382E0,5.1413903E0,1.4915025E-1,3.0508912E0,-1.8600795E0,-1.6427642E-1,8.603128E0,2.6172667E0,-3.6210268E0,5.710562E-1,2.562862E0,1.703479E0,-2.7688906E0,-4.8940513E-1,-1.5409168E0,-4.165335E0,-1.2794464E0,1.6375887E0,2.0064902E0,-1.8635304E0,7.312133E-1,-3.5447076E-1,-1.443623E-1,4.9668744E-1,9.5350164E-1,-5.53246E-1,-1.2446147E0,-4.110221E-1,2.0999056E-1,2.7698486E0,-3.7853938E-1,6.9484425E-1,1.6912407E0,2.6662984E-1,-7.4121535E-1,1.1545794E0,-1.3564107E-1,1.405233E-1,3.3071942E0,9.943702E-1,1.597892E-1,9.403805E-1,-1.4825104E0,-5.1757926E-1,2.4125905E-1,1.5716244E-2,-2.4788748E-1,7.1240747E-1,-1.1162648E0,-4.592032E-1,1.7765168E0,-5.579166E-1,-5.150309E-1,3.2641627E-2,-1.7624182E0,-6.13986E-1,-5.356531E-1,4.7122043E-1,-1.2681024E-1,9.244696E-1,-3.7258017E-1,8.363913E-1,-1.3102058E0,1.6464648E-1,8.7420493E-1,-1.3054243E-1,-1.1312727E0,-8.534384E-2],"categories":[],"categories_nodes":[],"categories_segments":[],"categories_sizes":[],"default_left":[0,0,0,0,0,0,0,0,0,0,0,0,0,0,0,0,0,0,0,0,0,0,0,0,0,0,0,0,0,0,0,0,0,0,0,0,0,0,0,0,0,0,0,0,0,0,0,0,0,0,0,0,0,0,0,0,0,0,0,0,0,0,0,0,0,0,0,0,0,0,0,0,0,0,0,0,0,0,0,0,0,0,0,0,0,0,0,0,0,0,0,0,0,0,0,0,0,0,0],"id":11,"left_children":[1,3,5,7,9,11,13,15,17,19,21,23,-1,25,27,29,31,33,35,-1,37,39,41,-1,43,45,47,49,51,53,55,57,59,61,63,65,67,69,71,73,75,-1,77,79,81,83,85,87,89,91,93,95,97,-1,-1,-1,-1,-1,-1,-1,-1,-1,-1,-1,-1,-1,-1,-1,-1,-1,-1,-1,-1,-1,-1,-1,-1,-1,-1,-1,-1,-1,-1,-1,-1,-1,-1,-1,-1,-1,-1,-1,-1,-1,-1,-1,-1,-1,-1],"loss_changes":[9.509528E1,1.2487403E2,8.844503E1,1.0391812E2,1.3088371E2,4.891719E1,8.5407974E1,1.1613669E2,3.380994E1,8.958176E1,1.5278682E2,4.762387E1,0E0,7.636646E1,1.1180982E2,1.0370729E2,1.756331E2,4.6231598E1,7.195738E1,0E0,3.98927E1,2.9584343E1,5.6850746E1,0E0,3.283551E1,2.7900711E1,5.9144497E1,1.4223502E2,1.022818E2,4.0712732E2,7.822452E2,3.540602E1,6.622452E1,8.5475555E1,3.413714E1,1.03629074E2,6.3409397E1,2.7474396E1,2.6442337E0,6.496376E0,3.2063842E-1,0E0,1.2150267E1,2.495253E1,9.88655E1,3.377987E0,2.4193802E1,3.597916E1,3.1052681E1,1.2531435E2,7.487811E1,2.6349802E2,1.3092203E2,0E0,0E0,0E0,0E0,0E0,0E0,0E0,0E0,0E0,0E0,0E0,0E0,0E0,0E0,0E0,0E0,0E0,0E0,0E0,0E0,0E0,0E0,0E0,0E0,0E0,0E0,0E0,0E0,0E0,0E0,0E0,0E0,0E0,0E0,0E0,0E0,0E0,0E0,0E0,0E0,0E0,0E0,0E0,0E0,0E0,0E0],"parents":[2147483647,0,0,1,1,2,2,3,3,4,4,5,5,6,6,7,7,8,8,9,9,10,10,11,11,13,13,14,14,15,15,16,16,17,17,18,18,20,20,21,21,22,22,24,24,25,25,26,26,27,27,28,28,29,29,30,30,31,31,32,32,33,33,34,34,35,35,36,36,37,37,38,38,39,39,40,40,42,42,43,43,44,44,45,45,46,46,47,47,48,48,49,49,50,50,51,51,52,52],"right_children":[2,4,6,8,10,12,14,16,18,20,22,24,-1,26,28,30,32,34,36,-1,38,40,42,-1,44,46,48,50,52,54,56,58,60,62,64,66,68,70,72,74,76,-1,78,80,82,84,86,88,90,92,94,96,98,-1,-1,-1,-1,-1,-1,-1,-1,-1,-1,-1,-1,-1,-1,-1,-1,-1,-1,-1,-1,-1,-1,-1,-1,-1,-1,-1,-1,-1,-1,-1,-1,-1,-1,-1,-1,-1,-1,-1,-1,-1,-1,-1,-1,-1,-1],"split_conditions":[1.9602652E1,1.9469976E1,2.000512E1,1.4775414E1,1.8599568E2,5E0,7.155518E1,3.1673563E2,1.0739833E1,2.8217278E1,2.7E0,8.2505045E0,9.790555E-1,1E-1,1.1301274E2,8.000001E-1,1.7786331E1,2.1837915E1,1.1928989E1,-5.60591E-1,1.9586117E1,2.5564319E2,9.742082E0,9.0458083E-1,2.8267566E2,3.1689623E1,4.2791725E1,1.3000001E0,3.8920834E0,2.1642117E2,2.1642117E2,3.3019666E2,4.762916E0,1.0296251E1,9.028754E0,2.2175417E1,5E-1,1.8625418E1,1.4687474E2,1E-1,2.5962498E0,2.562862E0,1.7160835E1,1.0260834E1,2.877873E2,1.609625E1,2.1889065E1,1.7277502E1,2.1629978E1,2.1120682E1,3.8170834E0,2.3090569E1,1.258978E2,-1.443623E-1,4.9668744E-1,9.5350164E-1,-5.53246E-1,-1.2446147E0,-4.110221E-1,2.0999056E-1,2.7698486E0,-3.7853938E-1,6.9484425E-1,1.6912407E0,2.6662984E-1,-7.4121535E-1,1.1545794E0,-1.3564107E-1,1.405233E-1,3.3071942E0,9.943702E-1,1.597892E-1,9.403805E-1,-1.4825104E0,-5.1757926E-1,2.4125905E-1,1.5716244E-2,-2.4788748E-1,7.1240747E-1,-1.1162648E0,-4.592032E-1,1.7765168E0,-5.579166E-1,-5.150309E-1,3.2641627E-2,-1.7624182E0,-6.13986E-1,-5.356531E-1,4.7122043E-1,-1.2681024E-1,9.244696E-1,-3.7258017E-1,8.363913E-1,-1.3102058E0,1.6464648E-1,8.7420493E-1,-1.3054243E-1,-1.1312727E0,-8.534384E-2],"split_indices":[2,2,2,0,3,1,3,3,2,3,1,3,0,1,3,1,2,0,2,0,2,3,0,0,3,3,3,1,0,3,3,3,0,2,2,0,1,0,3,1,0,0,0,0,3,0,2,0,2,2,0,2,3,0,0,0,0,0,0,0,0,0,0,0,0,0,0,0,0,0,0,0,0,0,0,0,0,0,0,0,0,0,0,0,0,0,0,0,0,0,0,0,0,0,0,0,0,0,0],"split_type":[0,0,0,0,0,0,0,0,0,0,0,0,0,0,0,0,0,0,0,0,0,0,0,0,0,0,0,0,0,0,0,0,0,0,0,0,0,0,0,0,0,0,0,0,0,0,0,0,0,0,0,0,0,0,0,0,0,0,0,0,0,0,0,0,0,0,0,0,0,0,0,0,0,0,0,0,0,0,0,0,0,0,0,0,0,0,0,0,0,0,0,0,0,0,0,0,0,0,0],"sum_hessian":[1.77E3,9.73E2,7.97E2,9.52E2,2.1E1,3.6E1,7.61E2,5.48E2,4.04E2,8E0,1.3E1,3.5E1,1E0,5E1,7.11E2,5.1E2,3.8E1,3.2E1,3.72E2,1E0,7E0,7E0,6E0,1E0,3.4E1,1.9E1,3.1E1,5.8E1,6.53E2,3.78E2,1.32E2,3.5E1,3E0,2.6E1,6E0,2.6E1,3.46E2,4E0,3E0,5E0,2E0,1E0,5E0,2.5E1,9E0,1E1,9E0,2.2E1,9E0,4.7E1,1.1E1,1.02E2,5.51E2,2.36E2,1.42E2,8.4E1,4.8E1,5E0,3E1,2E0,1E0,1.6E1,1E1,2E0,4E0,2.4E1,2E0,2.38E2,1.08E2,2E0,2E0,1E0,2E0,2E0,3E0,1E0,1E0,1E0,4E0,1.3E1,1.2E1,1E0,8E0,9E0,1E0,4E0,5E0,1.9E1,3E0,4E0,5E0,9E0,3.8E1,5E0,6E0,3.5E1,6.7E1,1E1,5.41E2],"tree_param":{"num_deleted":"0","num_feature":"4","num_nodes":"99","size_leaf_vector":"1"}},{"base_weights":[2.4338067E-2,6.329786E-1,-6.285067E-2,-1.1221499E-3,2.233346E0,-4.033185E-1,1.2480995E-1,3.5181868E0,-4.4410425E-1,6.1202874E0,4.157966E-1,-2.1112459E0,-1.2141626E-1,1.8748167E0,-1.2986707E-2,-4.0065126E0,5.9542804E0,-8.158547E-2,-4.394802E0,2.259832E0,1.7249687E1,1.668168E0,-2.1166658E0,-4.051389E0,-4.3784088E-1,2.9228086E0,-2.9742613E-1,5.6142964E0,5.489087E-1,-3.0150614E0,1.1857947E-1,-5.9496155E0,5.6488466E-1,1.1753082E1,1.4268258E0,-4.5358086E-1,2.8502173E0,-6.300006E0,-2.1339414E0,5.0466247E0,-7.362202E0,6.8130846E0,-6.889043E-1,-2.1387717E-1,3.5644717E0,-3.7053072E0,1.8016781E0,1.6756927E0,-5.747545E0,2.2864854E0,-1.6945984E0,-1.6128988E0,1.034123E1,1.4000169E0,-4.9465293E-1,1.1220655E0,1.1650856E1,-3.4532118E-1,4.1572213E0,-5.277237E0,2.2288603E-1,1.2222341E0,-9.6096806E-2,2.2755976E-1,-2.5315528E0,2.6249295E-1,5.092018E0,-1.3975987E0,1.5738041E0,-2.7231887E-1,2.7265388E-1,1.7652138E0,-8.043601E-1,-2.2120013E0,-1.4000188E-1,-1.1417442E-1,-7.088214E-1,-3.1338527E0,2.1624618E0,-2.6315196E0,-4.7004205E-1,-4.805023E-1,7.098192E-1,2.012447E0,-7.4316147E-3,-1.2795016E0,-2.3733331E-1,-1.8970953E-1,1.0905486E0,1.4451501E0,-5.4027605E-1,-3.6479719E0,-1.2516466E0,1.4619337E0,-1.0032196E0,-2.2452286E-1,-8.623058E-1,-1.4246662E0,2.6851034E-2,4.5012665E0,8.0321866E-1,1.5358718E-1,2.6271982E0,-9.6890575E-1,-1.2719412E-1,-1.3113799E0,1.3245419E0,1.9782764E-1,4.5614285E0,1.9816835E-1,-7.859445E-1,1.3651298E0,3.376608E-2,-1.8862041E0,-1.15012035E-1,1.0573189E0,-7.321833E-1,1.135605E0,1.299698E-1,1.3756377E-1,-1.0561941E-1],"categories":[],"categories_nodes":[],"categories_segments":[],"categories_sizes":[],"default_left":[0,0,0,0,0,0,0,0,0,0,0,0,0,0,0,0,0,0,0,0,0,0,0,0,0,0,0,0,0,0,0,0,0,0,0,0,0,0,0,0,0,0,0,0,0,0,0,0,0,0,0,0,0,0,0,0,0,0,0,0,0,0,0,0,0,0,0,0,0,0,0,0,0,0,0,0,0,0,0,0,0,0,0,0,0,0,0,0,0,0,0,0,0,0,0,0,0,0,0,0,0,0,0,0,0,0,0,0,0,0,0,0,0,0,0,0,0,0,0,0,0],"id":12,"left_children":[1,3,5,7,9,11,13,15,17,19,21,23,25,27,29,31,33,35,37,39,41,43,45,47,49,51,53,55,57,59,61,63,-1,65,67,69,71,73,75,77,79,-1,-1,81,83,85,87,89,91,93,95,97,99,101,103,105,107,109,111,113,115,117,119,-1,-1,-1,-1,-1,-1,-1,-1,-1,-1,-1,-1,-1,-1,-1,-1,-1,-1,-1,-1,-1,-1,-1,-1,-1,-1,-1,-1,-1,-1,-1,-1,-1,-1,-1,-1,-1,-1,-1,-1,-1,-1,-1,-1,-1,-1,-1,-1,-1,-1,-1,-1,-1,-1,-1,-1,-1,-1],"loss_changes":[9.402073E1,2.2528685E2,9.908356E1,2.5100099E2,4.4253174E2,2.6503284E2,2.4116942E2,3.5381165E2,2.0444635E2,8.203097E2,1.4308063E2,2.5146454E2,2.5484497E2,3.5886734E2,3.6689105E2,6.842195E1,3.5078387E2,1.4525427E2,3.8244965E1,4.6618814E2,5.858154E2,1.07830215E2,1.0004843E2,3.5933582E2,1.5109883E2,8.9152185E2,1.5100931E2,5.0216174E2,1.7890192E2,2.8684363E2,2.1098378E2,7.318436E1,0E0,3.2587103E2,2.3361401E2,7.383683E1,2.6749695E2,3.41257E1,1.9089241E0,5.1065448E2,1.8931503E1,0E0,0E0,6.1076622E1,1.6941795E2,1.4567657E1,2.4612644E1,1.06970535E2,2.3212195E2,2.2019388E2,3.1336922E1,9.1183174E1,3.1719177E2,3.0260196E2,7.652723E1,2.3637914E2,3.0247375E2,1.0468483E2,1.698233E1,1.1128638E2,1.5809224E2,2.915938E2,1.0607158E2,0E0,0E0,0E0,0E0,0E0,0E0,0E0,0E0,0E0,0E0,0E0,0E0,0E0,0E0,0E0,0E0,0E0,0E0,0E0,0E0,0E0,0E0,0E0,0E0,0E0,0E0,0E0,0E0,0E0,0E0,0E0,0E0,0E0,0E0,0E0,0E0,0E0,0E0,0E0,0E0,0E0,0E0,0E0,0E0,0E0,0E0,0E0,0E0,0E0,0E0,0E0,0E0,0E0,0E0,0E0,0E0,0E0,0E0],"parents":[2147483647,0,0,1,1,2,2,3,3,4,4,5,5,6,6,7,7,8,8,9,9,10,10,11,11,12,12,13,13,14,14,15,15,16,16,17,17,18,18,19,19,20,20,21,21,22,22,23,23,24,24,25,25,26,26,27,27,28,28,29,29,30,30,31,31,33,33,34,34,35,35,36,36,37,37,38,38,39,39,40,40,43,43,44,44,45,45,46,46,47,47,48,48,49,49,50,50,51,51,52,52,53,53,54,54,55,55,56,56,57,57,58,58,59,59,60,60,61,61,62,62],"right_children":[2,4,6,8,10,12,14,16,18,20,22,24,26,28,30,32,34,36,38,40,42,44,46,48,50,52,54,56,58,60,62,64,-1,66,68,70,72,74,76,78,80,-1,-1,82,84,86,88,90,92,94,96,98,100,102,104,106,108,110,112,114,116,118,120,-1,-1,-1,-1,-1,-1,-1,-1,-1,-1,-1,-1,-1,-1,-1,-1,-1,-1,-1,-1,-1,-1,-1,-1,-1,-1,-1,-1,-1,-1,-1,-1,-1,-1,-1,-1,-1,-1,-1,-1,-1,-1,-1,-1,-1,-1,-1,-1,-1,-1,-1,-1,-1,-1,-1,-1,-1,-1],"split_conditions":[1.2768586E1,1.1928989E1,1E-1,-5.183334E-1,7.8774986E0,1.4386494E1,1.4417988E1,9.028754E0,1.1681987E1,6.7149997E0,2.1699886E2,7.4962487E0,3.6291683E-1,6.7149997E0,1.5124284E1,-4.2995834E0,1.2445713E2,1.1435313E1,5.744167E0,5.89E0,1E-1,1.3066273E2,1.1E0,-8.6416674E-1,1.1921249E1,-5.183334E-1,1.5192682E1,5E-1,4.5E0,1.2223332E1,3E-1,5.8732843E0,5.6488466E-1,2.1849766E1,1.8126364E2,2E-1,2.800724E2,7.0000005E-1,1.05551195E1,-2.9641669E0,1.24811535E1,6.8130846E0,-6.889043E-1,1.2620554E1,1E-1,3.4034607E2,1.5175418E1,1.3358861E1,2.5001168E-3,1.370839E1,2.0450418E1,1.3299855E2,1.7533146E1,1.5158522E1,1.3941668E0,2.3254166E0,-1.9620833E0,9.000001E-1,3.1553043E2,1.4917212E1,1.7000002E0,1.5944383E2,2.1261542E2,2.2755976E-1,-2.5315528E0,2.6249295E-1,5.092018E0,-1.3975987E0,1.5738041E0,-2.7231887E-1,2.7265388E-1,1.7652138E0,-8.043601E-1,-2.2120013E0,-1.4000188E-1,-1.1417442E-1,-7.088214E-1,-3.1338527E0,2.1624618E0,-2.6315196E0,-4.7004205E-1,-4.805023E-1,7.098192E-1,2.012447E0,-7.4316147E-3,-1.2795016E0,-2.3733331E-1,-1.8970953E-1,1.0905486E0,1.4451501E0,-5.4027605E-1,-3.6479719E0,-1.2516466E0,1.4619337E0,-1.0032196E0,-2.2452286E-1,-8.623058E-1,-1.4246662E0,2.6851034E-2,4.5012665E0,8.0321866E-1,1.5358718E-1,2.6271982E0,-9.6890575E-1,-1.2719412E-1,-1.3113799E0,1.3245419E0,1.9782764E-1,4.5614285E0,1.9816835E-1,-7.859445E-1,1.3651298E0,3.376608E-2,-1.8862041E0,-1.15012035E-1,1.0573189E0,-7.321833E-1,1.135605E0,1.299698E-1,1.3756377E-1,-1.0561941E-1],"split_indices":[2,2,1,0,0,2,2,2,2,0,3,0,0,0,2,0,3,2,0,0,1,3,1,0,0,0,2,1,1,0,1,3,0,3,3,1,3,1,3,0,2,0,0,2,1,3,0,2,0,2,0,3,2,2,0,0,0,1,3,2,1,3,3,0,0,0,0,0,0,0,0,0,0,0,0,0,0,0,0,0,0,0,0,0,0,0,0,0,0,0,0,0,0,0,0,0,0,0,0,0,0,0,0,0,0,0,0,0,0,0,0,0,0,0,0,0,0,0,0,0,0],"split_type":[0,0,0,0,0,0,0,0,0,0,0,0,0,0,0,0,0,0,0,0,0,0,0,0,0,0,0,0,0,0,0,0,0,0,0,0,0,0,0,0,0,0,0,0,0,0,0,0,0,0,0,0,0,0,0,0,0,0,0,0,0,0,0,0,0,0,0,0,0,0,0,0,0,0,0,0,0,0,0,0,0,0,0,0,0,0,0,0,0,0,0,0,0,0,0,0,0,0,0,0,0,0,0,0,0,0,0,0,0,0,0,0,0,0,0,0,0,0,0,0,0],"sum_hessian":[1.77E3,2.21E2,1.549E3,1.59E2,6.2E1,5.5E2,9.99E2,1.7E1,1.42E2,1.9E1,4.3E1,7.7E1,4.73E2,7.2E1,9.27E2,4E0,1.3E1,1.31E2,1.1E1,1.5E1,4E0,2.9E1,1.4E1,3.5E1,4.2E1,2.5E1,4.48E2,1.8E1,5.4E1,3.8E1,8.89E2,3E0,1E0,5E0,8E0,1.17E2,1.4E1,5E0,6E0,1.2E1,3E0,3E0,1E0,1.5E1,1.4E1,1E1,4E0,8E0,2.7E1,1.3E1,2.9E1,1.6E1,9E0,4.6E1,4.02E2,1.1E1,7E0,4.4E1,1E1,2.2E1,1.6E1,1.44E2,7.45E2,1E0,2E0,2E0,3E0,3E0,5E0,8.8E1,2.9E1,9E0,5E0,4E0,1E0,1E0,5E0,1E0,1.1E1,2E0,1E0,1E1,5E0,7E0,7E0,8E0,2E0,2E0,2E0,4E0,4E0,4E0,2.3E1,9E0,4E0,1.7E1,1.2E1,5E0,1.1E1,5E0,4E0,4.2E1,4E0,9E0,3.93E2,4E0,7E0,2E0,5E0,3.1E1,1.3E1,9E0,1E0,1.8E1,4E0,7E0,9E0,3.3E1,1.11E2,2.35E2,5.1E2],"tree_param":{"num_deleted":"0","num_feature":"4","num_nodes":"121","size_leaf_vector":"1"}},{"base_weights":[2.3485443E-2,-2.6213086E0,3.546666E-2,1.8521304E-1,-3.1721745E0,5.813065E-2,-1.2764497E0,-1.1122903E0,-3.6670515E-1,5.201314E-1,-7.2133993E-3,-1.7928325E0,-4.6326953E-1,1.0695006E0,-6.091454E-1,-1.9580154E-1,2.3454084E-1,-6.2734044E-1,-5.9901994E-1,3.7929413E-1,-7.125943E-1,7.5997585E-1,6.8461585E0,-4.112199E0,-3.4311872E-2,2.0935549E-1,-6.2788755E-1,1.0013086E0,2.8945405E-2,2.521889E-1,-1.1690898E0,4.5466232E-1,-9.915118E-1,7.5509113E-1,-3.8915968E-3,-5.5404093E-2,-1.521298E0,1.804834E0,-2.0117904E-1,-8.868322E-1,1.0755835E-1,-7.7326024E-1,-1.3061643E-1,1.9568583E0,8.766369E-2,-1.8527786E-1,9.2236996E-2,-4.1873115E-1,-7.3357165E-2,1.8517049E-1,1.9427562E-2,-3.6830786E-1,1.7011757E-1],"categories":[],"categories_nodes":[],"categories_segments":[],"categories_sizes":[],"default_left":[0,0,0,0,0,0,0,0,0,0,0,0,0,0,0,0,0,0,0,0,0,0,0,0,0,0,0,0,0,0,0,0,0,0,0,0,0,0,0,0,0,0,0,0,0,0,0,0,0,0,0,0,0],"id":13,"left_children":[1,3,5,-1,7,9,11,-1,-1,13,15,17,19,21,23,25,27,-1,29,-1,31,33,-1,35,37,39,41,43,45,-1,47,49,51,-1,-1,-1,-1,-1,-1,-1,-1,-1,-1,-1,-1,-1,-1,-1,-1,-1,-1,-1,-1],"loss_changes":[5.621215E1,1.6231075E1,5.252367E1,0E0,2.7763367E0,5.238167E1,1.1766804E1,0E0,0E0,1.340353E2,6.9391335E1,5.1574707E0,6.5004225E0,9.5886646E2,1.4282967E2,1.4981006E2,1.0511954E2,0E0,5.086275E0,0E0,4.3576236E0,1.9559402E2,0E0,3.6720337E1,2.4272163E2,2.09772E2,1.5425441E2,5.5015295E2,9.50858E1,0E0,4.970255E-1,1.5019178E-1,4.377221E0,0E0,0E0,0E0,0E0,0E0,0E0,0E0,0E0,0E0,0E0,0E0,0E0,0E0,0E0,0E0,0E0,0E0,0E0,0E0,0E0],"parents":[2147483647,0,0,1,1,2,2,4,4,5,5,6,6,9,9,10,10,11,11,12,12,13,13,14,14,15,15,16,16,18,18,20,20,21,21,23,23,24,24,25,25,26,26,27,27,28,28,30,30,31,31,32,32],"right_children":[2,4,6,-1,8,10,12,-1,-1,14,16,18,20,22,24,26,28,-1,30,-1,32,34,-1,36,38,40,42,44,46,-1,48,50,52,-1,-1,-1,-1,-1,-1,-1,-1,-1,-1,-1,-1,-1,-1,-1,-1,-1,-1,-1,-1],"split_conditions":[4.026005E0,2.0962498E0,3.4957156E2,1.8521304E-1,1.4510833E1,1.2768586E1,1.4775414E1,-1.1122903E0,-3.6670515E-1,2.2217859E2,2.3879222E2,2.1000001E0,1.4879582E1,2.1934203E2,2.3410448E2,1.5717714E2,1.6800856E1,-6.2734044E-1,-1.0600001E0,3.7929413E-1,1.1570515E1,5.29625E0,6.8461585E0,9.585739E0,2.406925E2,1.337825E1,1.8483335E0,2.5264589E2,2.0774214E1,2.521889E-1,7.6670833E0,1.5833749E1,5E0,7.5509113E-1,-3.8915968E-3,-5.5404093E-2,-1.521298E0,1.804834E0,-2.0117904E-1,-8.868322E-1,1.0755835E-1,-7.7326024E-1,-1.3061643E-1,1.9568583E0,8.766369E-2,-1.8527786E-1,9.2236996E-2,-4.1873115E-1,-7.3357165E-2,1.8517049E-1,1.9427562E-2,-3.6830786E-1,1.7011757E-1],"split_indices":[3,0,3,0,0,2,0,0,0,3,3,1,0,3,3,3,2,0,0,0,2,0,0,2,3,2,0,3,2,0,0,0,1,0,0,0,0,0,0,0,0,0,0,0,0,0,0,0,0,0,0,0,0],"split_type":[0,0,0,0,0,0,0,0,0,0,0,0,0,0,0,0,0,0,0,0,0,0,0,0,0,0,0,0,0,0,0,0,0,0,0,0,0,0,0,0,0,0,0,0,0,0,0,0,0,0,0,0,0],"sum_hessian":[1.77E3,7E0,1.763E3,1E0,6E0,1.734E3,2.9E1,4E0,2E0,2.14E2,1.52E3,1.7E1,1.2E1,1.44E2,7E1,8.54E2,6.66E2,1.3E1,4E0,1E0,1.1E1,1.43E2,1E0,9E0,6.1E1,4.41E2,4.13E2,1.4E2,5.26E2,1E0,3E0,2E0,9E0,4.3E1,1E2,2E0,7E0,5E0,5.6E1,1.9E1,4.22E2,3.6E1,3.77E2,1.5E1,1.25E2,1.58E2,3.68E2,2E0,1E0,1E0,1E0,8E0,1E0],"tree_param":{"num_deleted":"0","num_feature":"4","num_nodes":"53","size_leaf_vector":"1"}},{"base_weights":[1.9893926E-2,-4.6200097E-1,1.01627976E-1,-3.215079E-1,-4.794659E0,3.4474173E0,6.812467E-2,1.3692269E0,-6.031123E-1,-4.4537354E0,-1.2379581E0,1.0348084E1,-2.651388E-3,6.191255E-1,-3.1048393E-2,9.59738E-2,1.534302E1,-1.6724765E0,-1.5884395E-1,-6.7407906E-1,8.0503345E-2,4.409211E0,1.6759262E0,-1.4389198E0,2.8705482E0,4.5760455E0,3.0040824E-1,-1.9530636E0,1.2167879E-2,1.3294606E0,-4.079041E0,6.4738817E0,4.3047783E-1,-7.560771E-1,-4.825869E0,3.4836032E0,-4.6553776E-1,-3.536423E-1,2.0744105E-1,-1.8401076E0,-1.5690422E-1,1.6228095E-1,1.040032E0,9.39389E0,-7.502486E-1,-4.910654E0,8.9594454E-1,-4.6338105E0,-4.3935138E-1,2.8549805E0,-2.2454163E-2,7.541345E-2,1.8068244E0,-1.5623343E0,-1.385643E-1,-3.9433968E-1,1.7982019E0,-3.3616197E0,-6.201974E-1,2.4370515E0,4.4464305E-2,8.039455E-2,-2.797012E-1,-3.1247022E-2,-1.2789202E-1,-6.494695E-1,-2.381053E-1,-1.1503301E-1,4.442611E-2,-4.1439945E-1,4.503517E0,-1.3985498E0,1.591407E0,-3.0364761E0,8.257663E-2,3.649663E0,1.9580822E-1,1.1653528E0,-2.1746862E0,1.1148957E-1,-1.072034E0,1.924079E0,-6.9015555E-2,1.6761735E-1,-3.3102773E-2],"categories":[],"categories_nodes":[],"categories_segments":[],"categories_sizes":[],"default_left":[0,0,0,0,0,0,0,0,0,0,0,0,0,0,0,0,0,0,0,0,0,0,0,0,0,0,0,0,0,0,0,0,0,0,0,0,0,0,0,0,0,0,0,0,0,0,0,0,0,0,0,0,0,0,0,0,0,0,0,0,0,0,0,0,0,0,0,0,0,0,0,0,0,0,0,0,0,0,0,0,0,0,0,0,0],"id":14,"left_children":[1,3,5,7,9,11,13,15,17,-1,19,21,23,25,27,29,31,33,35,-1,37,-1,-1,39,41,43,45,47,49,51,53,-1,-1,55,57,59,61,63,-1,65,67,-1,-1,69,71,73,75,77,79,81,83,-1,-1,-1,-1,-1,-1,-1,-1,-1,-1,-1,-1,-1,-1,-1,-1,-1,-1,-1,-1,-1,-1,-1,-1,-1,-1,-1,-1,-1,-1,-1,-1,-1,-1],"loss_changes":[6.980172E1,1.5489655E2,1.6958908E2,1.1985539E2,2.676123E2,3.5714404E2,8.204052E1,6.3904584E2,1.0187755E2,0E0,9.492919E0,2.1443542E1,4.9524033E1,2.8742603E2,1.05762115E2,1.80517E2,2.2925189E2,1.7840659E2,1.7254051E2,0E0,1.3055274E0,0E0,0E0,3.8259125E0,3.6805878E0,4.4328918E2,6.654189E2,1.1158475E2,1.2270038E2,1.3509929E2,3.0257294E1,0E0,0E0,1.9633733E2,2.2320984E2,1.8450648E2,4.8871582E1,9.98348E-3,0E0,3.209648E-1,2.6406035E-1,0E0,0E0,5.655367E2,2.3788916E2,5.973014E2,5.1839594E2,2.5092491E2,4.962028E1,1.6615213E2,6.299081E1,0E0,0E0,0E0,0E0,0E0,0E0,0E0,0E0,0E0,0E0,0E0,0E0,0E0,0E0,0E0,0E0,0E0,0E0,0E0,0E0,0E0,0E0,0E0,0E0,0E0,0E0,0E0,0E0,0E0,0E0,0E0,0E0,0E0,0E0],"parents":[2147483647,0,0,1,1,2,2,3,3,4,4,5,5,6,6,7,7,8,8,10,10,11,11,12,12,13,13,14,14,15,15,16,16,17,17,18,18,20,20,23,23,24,24,25,25,26,26,27,27,28,28,29,29,30,30,33,33,34,34,35,35,36,36,37,37,39,39,40,40,43,43,44,44,45,45,46,46,47,47,48,48,49,49,50,50],"right_children":[2,4,6,8,10,12,14,16,18,-1,20,22,24,26,28,30,32,34,36,-1,38,-1,-1,40,42,44,46,48,50,52,54,-1,-1,56,58,60,62,64,-1,66,68,-1,-1,70,72,74,76,78,80,82,84,-1,-1,-1,-1,-1,-1,-1,-1,-1,-1,-1,-1,-1,-1,-1,-1,-1,-1,-1,-1,-1,-1,-1,-1,-1,-1,-1,-1,-1,-1,-1,-1,-1,-1],"split_conditions":[8.6010376E1,8.385739E1,8.900019E1,8.9625E-1,-1.9620833E0,1.5379206E1,1.4424823E2,7.962501E-1,9.13375E0,-4.4537354E0,1E-1,9.028754E0,2.0188908E1,-3.8916662E-1,1.5113388E2,3.6291683E-1,8.233333E-1,5.3998425E1,9.987916E0,-6.7407906E-1,1.1E0,4.409211E0,1.6759262E0,1.8472595E1,4.6025004E0,1.6516901E1,1.5837501E0,1.4764389E1,1.5468512E2,7.224974E1,5.996927E1,6.4738817E0,4.3047783E-1,5.1232418E1,1.5484185E1,1.8532133E1,1.4830076E1,1.3637916E1,2.0744105E-1,1.8012918E1,2.1048334E1,1.6228095E-1,1.040032E0,1.1726277E1,2.049156E1,1.5158522E1,2.1899998E0,1.0495713E1,1.487817E2,6.2858334E0,1.337825E1,7.541345E-2,1.8068244E0,-1.5623343E0,-1.385643E-1,-3.9433968E-1,1.7982019E0,-3.3616197E0,-6.201974E-1,2.4370515E0,4.4464305E-2,8.039455E-2,-2.797012E-1,-3.1247022E-2,-1.2789202E-1,-6.494695E-1,-2.381053E-1,-1.1503301E-1,4.442611E-2,-4.1439945E-1,4.503517E0,-1.3985498E0,1.591407E0,-3.0364761E0,8.257663E-2,3.649663E0,1.9580822E-1,1.1653528E0,-2.1746862E0,1.1148957E-1,-1.072034E0,1.924079E0,-6.9015555E-2,1.6761735E-1,-3.3102773E-2],"split_indices":[3,3,3,0,0,2,3,0,0,0,1,2,2,0,3,0,0,3,0,0,1,0,0,2,0,2,0,2,3,3,3,0,0,3,2,2,2,0,0,0,0,0,0,2,2,2,0,2,3,0,2,0,0,0,0,0,0,0,0,0,0,0,0,0,0,0,0,0,0,0,0,0,0,0,0,0,0,0,0,0,0,0,0,0,0],"split_type":[0,0,0,0,0,0,0,0,0,0,0,0,0,0,0,0,0,0,0,0,0,0,0,0,0,0,0,0,0,0,0,0,0,0,0,0,0,0,0,0,0,0,0,0,0,0,0,0,0,0,0,0,0,0,0,0,0,0,0,0,0,0,0,0,0,0,0,0,0,0,0,0,0,0,0,0,0,0,0,0,0,0,0,0,0],"sum_hessian":[1.77E3,2.56E2,1.514E3,2.49E2,7E0,1.4E1,1.5E3,3.5E1,2.14E2,1E0,6E0,4E0,1E1,2.28E2,1.272E3,3.3E1,2E0,6.2E1,1.52E2,3E0,3E0,1E0,3E0,7E0,3E0,1.6E1,2.12E2,2.7E1,1.245E3,2.6E1,7E0,1E0,1E0,4.9E1,1.3E1,1.1E1,1.41E2,2E0,1E0,5E0,2E0,1E0,2E0,8E0,8E0,2.1E1,1.91E2,9E0,1.8E1,1.4E1,1.231E3,2.2E1,4E0,5E0,2E0,4.6E1,3E0,3E0,1E1,4E0,7E0,5.5E1,8.6E1,1E0,1E0,3E0,2E0,1E0,1E0,3E0,5E0,5E0,3E0,1E1,1.1E1,3E0,1.88E2,2E0,7E0,1.5E1,3E0,6E0,8E0,1.61E2,1.07E3],"tree_param":{"num_deleted":"0","num_feature":"4","num_nodes":"85","size_leaf_vector":"1"}},{"base_weights":[2.1397809E-2,1.0842535E-2,2.6797779E0,3.37569E-2,-1.5230743E0,3.4467638E-1,4.344935E0,-1.7724775E-2,7.289072E-1,-3.344466E0,-1.7567548E-1,4.4206885E-1,-5.2280664E-1,7.8115225E-2,1.6858972E0,6.379057E-2,-4.169373E-1,1.9438001E0,2.5216375E-2,-1.6547303E0,-2.575759E0,1.2348566E0,-1.1454804E0,2.4292948E-2,-2.5955594E-1,4.495374E-3,1.2145883E0,-1.0417256E0,5.901737E-3,3.9121726E0,2.9135022E-1,-5.241502E-1,2.534805E0,-1.6529782E-1,-9.473136E-1,6.540121E-1,4.2077523E-1,6.552007E-1,-2.010801E0,-2.00734E-1,3.2843158E-2,2.2234008E0,1.7554824E-1,-3.4927827E-1,3.8900536E-1,1.3983747E0,-2.3944711E-2,4.9566495E-1,1.683308E0,1.2001169E0,-6.1531473E-2,-3.9268035E-1,2.5172066E-2,1.5035944E0,-1.9751033E-1,2.2795294E-1,-3.0233696E-1,1.928414E-1,-7.010136E-2,7.254486E-1,-2.215521E-1,-8.12921E-1,-2.4274954E-1],"categories":[],"categories_nodes":[],"categories_segments":[],"categories_sizes":[],"default_left":[0,0,0,0,0,0,0,0,0,0,0,0,0,0,0,0,0,0,0,0,0,0,0,0,0,0,0,0,0,0,0,0,0,0,0,0,0,0,0,0,0,0,0,0,0,0,0,0,0,0,0,0,0,0,0,0,0,0,0,0,0,0,0],"id":15,"left_children":[1,3,5,7,9,11,13,15,17,19,21,-1,23,-1,-1,25,27,29,31,-1,33,35,37,-1,-1,39,41,43,45,47,49,51,53,55,-1,-1,57,59,61,-1,-1,-1,-1,-1,-1,-1,-1,-1,-1,-1,-1,-1,-1,-1,-1,-1,-1,-1,-1,-1,-1,-1,-1],"loss_changes":[4.9665077E1,6.208893E1,2.5720577E1,6.2283173E1,6.322012E1,4.6875477E0,1.9363396E1,5.277709E1,1.0254006E2,4.1527634E0,2.330156E1,0E0,6.902292E-1,0E0,0E0,9.190947E1,7.265699E1,1.4197621E2,1.0748729E2,0E0,1.3505783E1,4.4688864E0,1.6899141E1,0E0,0E0,9.073201E1,2.5308977E2,3.331536E1,6.621436E1,6.751608E1,4.685479E1,3.065022E1,1.1404043E2,3.1040335E0,0E0,0E0,8.767366E-1,1.161404E1,3.6864376E0,0E0,0E0,0E0,0E0,0E0,0E0,0E0,0E0,0E0,0E0,0E0,0E0,0E0,0E0,0E0,0E0,0E0,0E0,0E0,0E0,0E0,0E0,0E0,0E0],"parents":[2147483647,0,0,1,1,2,2,3,3,4,4,5,5,6,6,7,7,8,8,9,9,10,10,12,12,15,15,16,16,17,17,18,18,20,20,21,21,22,22,25,25,26,26,27,27,28,28,29,29,30,30,31,31,32,32,33,33,36,36,37,37,38,38],"right_children":[2,4,6,8,10,12,14,16,18,20,22,-1,24,-1,-1,26,28,30,32,-1,34,36,38,-1,-1,40,42,44,46,48,50,52,54,56,-1,-1,58,60,62,-1,-1,-1,-1,-1,-1,-1,-1,-1,-1,-1,-1,-1,-1,-1,-1,-1,-1,-1,-1,-1,-1,-1,-1],"split_conditions":[2.7600002E1,1.2199999E1,2.2406927E1,6E0,1.0181666E1,2.1629978E1,2.5334813E2,1.9421253E1,2.1261542E2,4.3629165E0,1.6194214E2,4.4206885E-1,1.5439999E1,7.8115225E-2,1.6858972E0,1.8460833E1,2.1048334E1,8.023334E0,3.1030835E2,-1.6547303E0,2.417667E2,1.1182971E2,1.3979871E1,2.4292948E-2,-2.5955594E-1,8.6010376E1,4.7155792E1,4.5E0,9.028754E0,1.6792506E2,1.3217443E1,2.3779254E2,2.1734581E1,7.0816665E0,-9.473136E-1,6.540121E-1,2.0435831E1,2.814059E2,1.6299694E1,-2.00734E-1,3.2843158E-2,2.2234008E0,1.7554824E-1,-3.4927827E-1,3.8900536E-1,1.3983747E0,-2.3944711E-2,4.9566495E-1,1.683308E0,1.2001169E0,-6.1531473E-2,-3.9268035E-1,2.5172066E-2,1.5035944E0,-1.9751033E-1,2.2795294E-1,-3.0233696E-1,1.928414E-1,-7.010136E-2,7.254486E-1,-2.215521E-1,-8.12921E-1,-2.4274954E-1],"split_indices":[1,1,2,1,0,2,3,0,3,0,3,0,0,0,0,0,0,0,3,0,3,3,2,0,0,3,3,1,2,3,2,3,2,0,0,0,0,3,2,0,0,0,0,0,0,0,0,0,0,0,0,0,0,0,0,0,0,0,0,0,0,0,0],"split_type":[0,0,0,0,0,0,0,0,0,0,0,0,0,0,0,0,0,0,0,0,0,0,0,0,0,0,0,0,0,0,0,0,0,0,0,0,0,0,0,0,0,0,0,0,0,0,0,0,0,0,0,0,0,0,0,0,0,0,0,0,0,0,0],"sum_hessian":[1.77E3,1.764E3,6E0,1.739E3,2.5E1,3E0,3E0,1.62E3,1.19E2,1E1,1.5E1,1E0,2E0,1E0,2E0,1.346E3,2.74E2,4.3E1,7.6E1,1E0,9E0,6E0,9E0,1E0,1E0,1.281E3,6.5E1,1.1E2,1.64E2,1.9E1,2.4E1,6.3E1,1.3E1,2E0,7E0,2E0,4E0,3E0,6E0,1.72E2,1.109E3,5E0,6E1,1.05E2,5E0,2E0,1.62E2,9E0,1E1,2E0,2.2E1,2.7E1,3.6E1,7E0,6E0,1E0,1E0,3E0,1E0,1E0,2E0,3E0,3E0],"tree_param":{"num_deleted":"0","num_feature":"4","num_nodes":"63","size_leaf_vector":"1"}},{"base_weights":[1.916852E-2,3.0250324E-2,-2.1537633E0,6.7055926E-2,-5.0777006E-1,3.162329E-1,-8.0595344E-1,1.5992595E-2,6.545499E-1,-2.1739714E0,-1.0381134E-1,6.3354686E-2,-1.6123135E0,5.2444625E0,3.555591E-1,-2.727775E0,1.0000889E0,1.5194874E0,-5.7583165E-1,-1.2195655E0,9.34972E-2,-3.3389716E0,-5.6806904E-1,3.9532318E0,2.2286887E0,9.402649E-1,-1.2370435E0,2.7575904E-1,-3.210901E0,-2.9269314E-1,7.317653E-1,9.4345886E-1,1.9560088E0,-1.6183714E0,4.8611894E-2,8.7544614E-1,-7.81484E-1,7.960504E-1,1.6164275E-2,-1.9497211E-1,-1.2543503E0,1.321445E0,-2.746174E-1,-1.4376806E-1,2.7714276E0,2.120108E-1,2.290113E0,-9.236569E-1,-1.02400765E-1,-1.2090435E0,-5.3564507E-1,1.1065536E-1,-2.4236728E-1,1.2317975E0,1.682715E-1,-1.6308294E-1,-5.6986797E-1,2.0797649E-1,-2.2554976E-1],"categories":[],"categories_nodes":[],"categories_segments":[],"categories_sizes":[],"default_left":[0,0,0,0,0,0,0,0,0,0,0,0,0,0,0,0,0,0,0,0,0,0,0,0,0,0,0,0,0,0,0,0,0,0,0,0,0,0,0,0,0,0,0,0,0,0,0,0,0,0,0,0,0,0,0,0,0,0,0],"id":16,"left_children":[1,3,5,7,9,-1,-1,11,13,15,17,19,21,23,25,27,29,31,33,35,37,39,41,-1,43,45,47,-1,49,51,-1,53,-1,55,57,-1,-1,-1,-1,-1,-1,-1,-1,-1,-1,-1,-1,-1,-1,-1,-1,-1,-1,-1,-1,-1,-1,-1,-1],"loss_changes":[4.271084E1,3.4945263E1,1.821276E1,4.9518543E1,7.583196E1,0E0,0E0,1.1732451E2,1.7928436E2,4.1399773E1,7.1368126E1,5.726894E1,7.563452E1,1.620241E2,1.1756364E2,3.6428436E1,8.155861E0,5.4338173E1,4.6951187E1,2.0250046E2,1.464058E2,3.3518143E1,5.2393562E1,0E0,1.3729323E2,1.3843213E2,5.5039753E1,0E0,1.265625E1,1.3204699E0,0E0,2.1893711E1,0E0,7.1270676E0,2.4257252E1,0E0,0E0,0E0,0E0,0E0,0E0,0E0,0E0,0E0,0E0,0E0,0E0,0E0,0E0,0E0,0E0,0E0,0E0,0E0,0E0,0E0,0E0,0E0,0E0],"parents":[2147483647,0,0,1,1,2,2,3,3,4,4,7,7,8,8,9,9,10,10,11,11,12,12,13,13,14,14,15,15,16,16,17,17,18,18,19,19,20,20,21,21,22,22,24,24,25,25,26,26,28,28,29,29,31,31,33,33,34,34],"right_children":[2,4,6,8,10,-1,-1,12,14,16,18,20,22,24,26,28,30,32,34,36,38,40,42,-1,44,46,48,-1,50,52,-1,54,-1,56,58,-1,-1,-1,-1,-1,-1,-1,-1,-1,-1,-1,-1,-1,-1,-1,-1,-1,-1,-1,-1,-1,-1,-1,-1],"split_conditions":[4.3534702E1,3.1795282E2,3E-1,2.940792E2,3.2444482E2,3.162329E-1,-8.0595344E-1,2.877873E2,2.9568356E2,6.2999997E0,3.3265015E2,-1.9620833E0,1.7283749E1,1.4917212E1,2.1924562E1,1.24811535E1,1.5921249E1,2.4187069E1,1.5273505E1,7.062193E1,-8.6416674E-1,9.983334E-1,-1.9620833E0,3.9532318E0,1.6E0,2.1889065E1,5.89E0,2.7575904E-1,1.609625E1,1.1900001E1,7.317653E-1,1.0495713E1,1.9560088E0,1.1570515E1,1.9513195E1,8.7544614E-1,-7.81484E-1,7.960504E-1,1.6164275E-2,-1.9497211E-1,-1.2543503E0,1.321445E0,-2.746174E-1,-1.4376806E-1,2.7714276E0,2.120108E-1,2.290113E0,-9.236569E-1,-1.02400765E-1,-1.2090435E0,-5.3564507E-1,1.1065536E-1,-2.4236728E-1,1.2317975E0,1.682715E-1,-1.6308294E-1,-5.6986797E-1,2.0797649E-1,-2.2554976E-1],"split_indices":[2,3,1,3,3,0,0,3,3,1,3,0,2,2,2,2,0,2,2,3,0,0,0,0,1,2,0,0,0,1,0,2,0,2,2,0,0,0,0,0,0,0,0,0,0,0,0,0,0,0,0,0,0,0,0,0,0,0,0],"split_type":[0,0,0,0,0,0,0,0,0,0,0,0,0,0,0,0,0,0,0,0,0,0,0,0,0,0,0,0,0,0,0,0,0,0,0,0,0,0,0,0,0,0,0,0,0,0,0,0,0,0,0,0,0,0,0,0,0,0,0],"sum_hessian":[1.77E3,1.762E3,8E0,1.65E3,1.12E2,1E0,7E0,1.519E3,1.31E2,2.1E1,9.1E1,1.477E3,4.2E1,7E0,1.24E2,1.8E1,3E0,2E1,7.1E1,3.3E1,1.444E3,1.5E1,2.7E1,1E0,6E0,9.1E1,3.3E1,2E0,1.6E1,2E0,1E0,1.9E1,1E0,2.6E1,4.5E1,8E0,2.5E1,2.1E1,1.423E3,4E0,1.1E1,1E0,2.6E1,5E0,1E0,8.9E1,2E0,1E1,2.3E1,9E0,7E0,1E0,1E0,1E0,1.8E1,6E0,2E1,2.5E1,2E1],"tree_param":{"num_deleted":"0","num_feature":"4","num_nodes":"59","size_leaf_vector":"1"}},{"base_weights":[1.8955937E-2,-1.2372096E0,3.47369E-2,-1.9654064E0,-6.721858E-1,4.7971502E-1,-2.2989122E-2,3.7707534E-2,-2.0973592E0,1.0412523E0,-5.191619E-1,-2.6178718E-1,1.0861159E-1,-1.1630884E0,9.6747017E-1,-3.3445294E0,2.041132E-1,7.4799424E-1,5.786741E0,-3.1264415E0,-5.5681936E-2,-6.188373E-1,2.5440812E-1,1.3746715E0,1.4763152E-2,4.2169648E-1,-5.4764646E-1,6.031861E-2,5.043384E-1,-1.1012385E0,-3.0592003E-1,2.535151E0,2.1116026E-2,6.3615304E-1,-3.8631876E0,1.0016984E1,-5.501461E-1,-2.5448766E0,-3.4056303E-1,1.7886021E0,-3.3649814E-1,4.343552E0,3.2054594E-1,-1.8816711E0,1.06372036E-1,-3.379015E-2,1.1281926E-1,2.848058E-1,1.7279354E0,-1.19705305E-1,8.5657763E-1,-1.5463439E0,-4.6229988E-1,4.6664925E0,-1.5884943E-1,2.241037E-1,-3.903092E-1,-1.7230679E0,-3.0696896E-1,5.400047E-1,-1.5248273E-1,2.6130657E0,3.5151273E-1,-7.6944596E-1,4.2339887E-2,2.2135861E-1,2.6275299E0,-8.950997E-1,2.7025142E-1,-2.3405116E0,-3.2233334E-1,7.29426E-1,1.8307885E-2],"categories":[],"categories_nodes":[],"categories_segments":[],"categories_sizes":[],"default_left":[0,0,0,0,0,0,0,0,0,0,0,0,0,0,0,0,0,0,0,0,0,0,0,0,0,0,0,0,0,0,0,0,0,0,0,0,0,0,0,0,0,0,0,0,0,0,0,0,0,0,0,0,0,0,0,0,0,0,0,0,0,0,0,0,0,0,0,0,0,0,0,0,0],"id":17,"left_children":[1,3,5,-1,7,9,11,13,15,17,19,21,23,25,27,29,-1,31,-1,33,35,37,39,41,43,-1,-1,45,-1,-1,-1,47,49,-1,51,53,55,57,59,61,63,65,67,69,71,-1,-1,-1,-1,-1,-1,-1,-1,-1,-1,-1,-1,-1,-1,-1,-1,-1,-1,-1,-1,-1,-1,-1,-1,-1,-1,-1,-1],"loss_changes":[3.51504E1,6.1653877E1,4.4962955E1,0E0,2.132523E1,1.1328279E2,4.873872E1,1.7872082E1,2.6525713E1,6.758943E2,8.80407E1,1.0171092E2,1.1879744E2,1.4476748E1,5.725157E0,4.927063E-2,0E0,1.6622427E2,0E0,5.0714294E1,3.1928683E2,1.7385861E2,2.0548552E2,2.1454826E2,1.6211673E2,0E0,0E0,3.154024E-1,0E0,0E0,0E0,1.8373584E2,1.10685425E2,0E0,2.2043198E1,1.8345526E2,6.0386883E1,1.9368088E2,1.03589554E2,2.587976E2,1.7490976E2,2.8007385E2,1.0239299E2,1.9710631E2,9.3685265E1,0E0,0E0,0E0,0E0,0E0,0E0,0E0,0E0,0E0,0E0,0E0,0E0,0E0,0E0,0E0,0E0,0E0,0E0,0E0,0E0,0E0,0E0,0E0,0E0,0E0,0E0,0E0,0E0],"parents":[2147483647,0,0,1,1,2,2,4,4,5,5,6,6,7,7,8,8,9,9,10,10,11,11,12,12,13,13,14,14,15,15,17,17,19,19,20,20,21,21,22,22,23,23,24,24,27,27,31,31,32,32,34,34,35,35,36,36,37,37,38,38,39,39,40,40,41,41,42,42,43,43,44,44],"right_children":[2,4,6,-1,8,10,12,14,16,18,20,22,24,26,28,30,-1,32,-1,34,36,38,40,42,44,-1,-1,46,-1,-1,-1,48,50,-1,52,54,56,58,60,62,64,66,68,70,72,-1,-1,-1,-1,-1,-1,-1,-1,-1,-1,-1,-1,-1,-1,-1,-1,-1,-1,-1,-1,-1,-1,-1,-1,-1,-1,-1,-1],"split_conditions":[8.854829E0,-7.4475007E0,1.2768586E1,-1.9654064E0,1.5468512E2,2.2217859E2,1E-1,8.287822E0,8.973334E0,2.1934203E2,2.3779254E2,2.1261542E2,1.4386494E1,-5.183334E-1,2.4081188E1,6.2858334E0,2.041132E-1,5.29625E0,5.786741E0,9.585739E0,2.3959528E2,1.405845E1,2.4883992E2,6.7149997E0,1.5124284E1,4.2169648E-1,-5.4764646E-1,1.1665E1,5.043384E-1,-1.1012385E0,-3.0592003E-1,1.0962499E0,1.257426E1,6.3615304E-1,1.2985833E1,7.8774986E0,1.0587918E1,4.3337502E0,8.233333E-1,1.3570615E1,2.627794E2,5E-1,8.419167E0,1.2149999E0,1.5463244E1,-3.379015E-2,1.1281926E-1,2.848058E-1,1.7279354E0,-1.19705305E-1,8.5657763E-1,-1.5463439E0,-4.6229988E-1,4.6664925E0,-1.5884943E-1,2.241037E-1,-3.903092E-1,-1.7230679E0,-3.0696896E-1,5.400047E-1,-1.5248273E-1,2.6130657E0,3.5151273E-1,-7.6944596E-1,4.2339887E-2,2.2135861E-1,2.6275299E0,-8.950997E-1,2.7025142E-1,-2.3405116E0,-3.2233334E-1,7.29426E-1,1.8307885E-2],"split_indices":[2,0,2,0,3,3,1,2,0,3,3,3,2,0,3,0,0,0,0,2,3,2,3,0,2,0,0,0,0,0,0,0,2,0,0,0,2,0,0,2,3,1,0,0,2,0,0,0,0,0,0,0,0,0,0,0,0,0,0,0,0,0,0,0,0,0,0,0,0,0,0,0,0],"split_type":[0,0,0,0,0,0,0,0,0,0,0,0,0,0,0,0,0,0,0,0,0,0,0,0,0,0,0,0,0,0,0,0,0,0,0,0,0,0,0,0,0,0,0,0,0,0,0,0,0,0,0,0,0,0,0,0,0,0,0,0,0,0,0,0,0,0,0,0,0,0,0,0,0],"sum_hessian":[1.77E3,2.1E1,1.749E3,1E0,2E1,2E2,1.549E3,1.4E1,6E0,1.28E2,7.2E1,5.5E2,9.99E2,6E0,8E0,4E0,2E0,1.27E2,1E0,1E1,6.2E1,3.25E2,2.25E2,6.8E1,9.31E2,1E0,5E0,4E0,4E0,3E0,1E0,3.6E1,9.1E1,1E0,9E0,2E0,6E1,4E1,2.85E2,6.2E1,1.63E2,1.7E1,5.1E1,4.2E1,8.89E2,3E0,1E0,2.5E1,1.1E1,8E1,1.1E1,5E0,4E0,1E0,1E0,2.2E1,3.8E1,1.2E1,2.8E1,2E1,2.65E2,4E0,5.8E1,2.8E1,1.35E2,1E1,7E0,7E0,4.4E1,4E0,3.8E1,1.6E1,8.73E2],"tree_param":{"num_deleted":"0","num_feature":"4","num_nodes":"73","size_leaf_vector":"1"}},{"base_weights":[1.8745301E-2,-7.717003E-1,4.4529807E-2,-1.6292308E-1,-2.5863948E0,7.4276686E-1,-1.4125532E-2,-1.3850884E0,6.894577E-1,-4.1611996E0,4.574956E0,1.8911622E-1,2.7217512E0,-2.2178156E0,1.1197089E-2,-4.5680027E-2,-4.056292E0,3.4812882E0,-2.113075E-1,-7.208755E0,8.7815404E-2,2.4903135E0,-4.315832E-1,3.470897E0,-1.5470588E-1,5.914164E0,7.302621E-1,-2.0841022E0,-1.1924787E0,2.5289336E-1,-8.8539936E-2,-5.733392E-1,2.7397278E-1,-2.7493248E0,7.8887343E-1,-1.5369047E0,2.0680597E-1,-2.3637395E0,-4.7797453E-1,8.109825E-1,-9.759315E-1,6.958498E0,-1.3920148E-2,3.2129613E-1,-3.5134947E0,1.1924729E1,7.7602243E-1,2.4052637E0,-1.3981023E0,-1.8314316E0,-1.09334745E-1,1.7031021E-1,3.9355876E0,-2.7999206E0,-4.8840728E-2,3.2916617E-2,-9.0567446E-1,9.58885E-1,-3.237073E-1,-1.445755E-1,8.761026E-1,-1.101086E-1,-5.1173145E-1,-1.4801006E-1,3.627259E0,8.5375136E-1,-6.465776E-1,3.5835713E-1,-2.7013344E-1,-1.2292109E0,-1.1882462E-1,4.7715354E0,-5.9952307E-1,1.5648104E0,-1.1573986E0,-1.5577409E-1,1.2451773E0,1.3853288E-1,-7.215013E-1,-8.863799E-1,-3.5203088E-2,1.1459662E0,-4.202559E-1,6.0126936E-1,2.133862E-2,-4.8316637E-1,1.9627756E0,-1.5369302E0,5.7776886E-1,-1.2878755E-1,3.604377E-2],"categories":[],"categories_nodes":[],"categories_segments":[],"categories_sizes":[],"default_left":[0,0,0,0,0,0,0,0,0,0,0,0,0,0,0,0,0,0,0,0,0,0,0,0,0,0,0,0,0,0,0,0,0,0,0,0,0,0,0,0,0,0,0,0,0,0,0,0,0,0,0,0,0,0,0,0,0,0,0,0,0,0,0,0,0,0,0,0,0,0,0,0,0,0,0,0,0,0,0,0,0,0,0,0,0,0,0,0,0,0,0],"id":18,"left_children":[1,3,5,7,9,11,13,15,17,19,21,23,25,27,29,31,33,-1,35,37,39,-1,-1,41,43,45,47,-1,49,51,53,55,-1,-1,57,-1,59,-1,-1,-1,61,63,65,67,69,71,73,75,77,79,81,83,85,87,89,-1,-1,-1,-1,-1,-1,-1,-1,-1,-1,-1,-1,-1,-1,-1,-1,-1,-1,-1,-1,-1,-1,-1,-1,-1,-1,-1,-1,-1,-1,-1,-1,-1,-1,-1,-1],"loss_changes":[3.6129555E1,6.1444313E1,7.028983E1,4.575022E1,1.769255E2,1.4520883E2,8.8417114E1,6.42157E1,2.580764E2,1.5602232E2,7.916322E1,1.1901359E2,1.8005313E2,7.89981E1,3.77966E1,7.1013937E0,1.5572778E2,0E0,5.240075E1,1.3798126E1,1.9331333E1,0E0,0E0,1.2163338E2,1.5461275E2,3.304606E2,7.109807E1,0E0,1.0873011E1,1.386206E2,1.1934326E2,1.5365542E1,0E0,0E0,2.143605E1,0E0,4.626045E1,0E0,0E0,0E0,1.5959411E0,1.9719368E2,4.2875774E1,9.1758514E1,2.0219223E1,3.0888245E2,1.641491E2,5.8301674E1,1.7965015E1,1.8905384E1,4.087373E1,8.152651E1,1.5512497E2,1.8552931E2,7.045038E1,0E0,0E0,0E0,0E0,0E0,0E0,0E0,0E0,0E0,0E0,0E0,0E0,0E0,0E0,0E0,0E0,0E0,0E0,0E0,0E0,0E0,0E0,0E0,0E0,0E0,0E0,0E0,0E0,0E0,0E0,0E0,0E0,0E0,0E0,0E0,0E0],"parents":[2147483647,0,0,1,1,2,2,3,3,4,4,5,5,6,6,7,7,8,8,9,9,10,10,11,11,12,12,13,13,14,14,15,15,16,16,18,18,19,19,20,20,23,23,24,24,25,25,26,26,28,28,29,29,30,30,31,31,34,34,36,36,40,40,41,41,42,42,43,43,44,44,45,45,46,46,47,47,48,48,49,49,50,50,51,51,52,52,53,53,54,54],"right_children":[2,4,6,8,10,12,14,16,18,20,22,24,26,28,30,32,34,-1,36,38,40,-1,-1,42,44,46,48,-1,50,52,54,56,-1,-1,58,-1,60,-1,-1,-1,62,64,66,68,70,72,74,76,78,80,82,84,86,88,90,-1,-1,-1,-1,-1,-1,-1,-1,-1,-1,-1,-1,-1,-1,-1,-1,-1,-1,-1,-1,-1,-1,-1,-1,-1,-1,-1,-1,-1,-1,-1,-1,-1,-1,-1,-1],"split_conditions":[9.826088E0,9.585739E0,1.2413476E1,8.6010376E1,2.703196E2,1.1928989E1,-2.9641669E0,5.858949E1,8.828102E1,7.4170837E0,-2.9641669E0,-1.3495831E0,7.8774986E0,1.3104198E1,1.5717714E2,3.6826527E1,9.028754E0,3.4812882E0,9.379911E1,2E-1,1.1569165E1,2.4903135E0,-4.315832E-1,1.2445713E2,1.1681987E1,1.2181625E1,1E-1,-2.0841022E0,1.8472595E1,1.5350925E2,1.6194214E2,3.1689623E1,2.7397278E-1,-2.7493248E0,-6.2099996E0,-1.5369047E0,9.346143E0,-2.3637395E0,-4.7797453E-1,8.109825E-1,2.1612917E1,2.1849766E1,-6.2099996E0,2.2217859E2,2.4834389E2,1E-1,1.2149999E0,9.5242424E1,1.6194214E2,2.4495447E2,1.9513195E1,-1.7874996E-1,1.4982228E1,1.7485832E1,2.2991792E2,3.2916617E-2,-9.0567446E-1,9.58885E-1,-3.237073E-1,-1.445755E-1,8.761026E-1,-1.101086E-1,-5.1173145E-1,-1.4801006E-1,3.627259E0,8.5375136E-1,-6.465776E-1,3.5835713E-1,-2.7013344E-1,-1.2292109E0,-1.1882462E-1,4.7715354E0,-5.9952307E-1,1.5648104E0,-1.1573986E0,-1.5577409E-1,1.2451773E0,1.3853288E-1,-7.215013E-1,-8.863799E-1,-3.5203088E-2,1.1459662E0,-4.202559E-1,6.0126936E-1,2.133862E-2,-4.8316637E-1,1.9627756E0,-1.5369302E0,5.7776886E-1,-1.2878755E-1,3.604377E-2],"split_indices":[2,2,2,3,3,2,0,3,3,0,0,0,0,2,3,3,2,0,3,1,0,0,0,3,2,2,1,0,2,3,3,3,0,0,0,0,2,0,0,0,